{"learner":{"attributes":{"best_iteration":"99","best_ntree_limit":"100","scikit_learn":"{\"use_label_encoder\": false, \"n_estimators\": 100, \"objective\": \"binary:logistic\", \"max_depth\": 4, \"max_leaves\": null, \"max_bin\": null, \"grow_policy\": null, \"learning_rate\": 0.05, \"verbosity\": null, \"booster\": null, \"tree_method\": null, \"gamma\": null, \"min_child_weight\": null, \"max_delta_step\": null, \"subsample\": 0.9, \"sampling_method\": null, \"colsample_bytree\": null, \"colsample_bylevel\": null, \"colsample_bynode\": null, \"reg_alpha\": null, \"reg_lambda\": null, \"scale_pos_weight\": null, \"base_score\": null, \"missing\": NaN, \"num_parallel_tree\": null, \"random_state\": null, \"n_jobs\": null, \"monotone_constraints\": null, \"interaction_constraints\": null, \"importance_type\": null, \"gpu_id\": null, \"validate_parameters\": null, \"predictor\": null, \"enable_categorical\": false, \"feature_types\": null, \"max_cat_to_onehot\": null, \"max_cat_threshold\": null, \"eval_metric\": null, \"early_stopping_rounds\": null, \"callbacks\": null, \"classes_\": [0, 1], \"n_classes_\": 2, \"_estimator_type\": \"classifier\"}"},"feature_names":[],"feature_types":[],"gradient_booster":{"model":{"gbtree_model_param":{"num_parallel_tree":"1","num_trees":"100","size_leaf_vector":"0"},"tree_info":[0,0,0,0,0,0,0,0,0,0,0,0,0,0,0,0,0,0,0,0,0,0,0,0,0,0,0,0,0,0,0,0,0,0,0,0,0,0,0,0,0,0,0,0,0,0,0,0,0,0,0,0,0,0,0,0,0,0,0,0,0,0,0,0,0,0,0,0,0,0,0,0,0,0,0,0,0,0,0,0,0,0,0,0,0,0,0,0,0,0,0,0,0,0,0,0,0,0,0,0],"trees":[{"base_weights":[-2.2452505E-1,-1.7463443E0,1.1637613E0,1.3804348E0,-1.9211371E0,-1.8560097E0,1.9966313E0,-1.8596492E0,1.9492064E0,-1.9681598E0,2.857143E-1,1.84E0,-1.9673572E0,1.9986514E0,-2.2222222E-1,1.9742765E0,-0E0,1.4285715E0,-1.974363E0,-1.8709677E0,1.902439E0,-1.9949142E0,1.6666667E-1],"categories":[],"categories_nodes":[],"categories_segments":[],"categories_sizes":[],"default_left":[1,1,1,1,1,1,1,0,1,1,1,0,1,0,0,0,0,0,0,0,0,0,0],"id":0,"left_children":[1,3,5,7,9,11,13,-1,15,17,19,-1,21,-1,-1,-1,-1,-1,-1,-1,-1,-1,-1],"loss_changes":[7.6474404E3,9.463877E2,4.764746E3,1.7316867E2,1.7030713E2,1.7224878E2,7.0976562E0,0E0,3.8482666E0,3.6570312E1,1.2559605E2,0E0,2.3752441E1,0E0,0E0,0E0,0E0,0E0,0E0,0E0,0E0,0E0,0E0],"parents":[2147483647,0,0,1,1,2,2,3,3,4,4,5,5,6,6,8,8,9,9,10,10,12,12],"right_children":[2,4,6,8,10,12,14,-1,16,18,20,-1,22,-1,-1,-1,-1,-1,-1,-1,-1,-1,-1],"split_conditions":[1.8773458E1,-3.5699394E1,1.5099279E1,1.4645058E1,1.938573E1,-1.8291668E1,7.909839E0,-9.298246E-2,4.1579914E0,-4.294087E1,1.1716285E0,9.2E-2,2.3029755E1,9.9932574E-2,-1.1111111E-2,9.871383E-2,-0E0,7.1428575E-2,-9.871815E-2,-9.354839E-2,9.512195E-2,-9.974571E-2,8.333334E-3],"split_indices":[955,14,958,4,131,102,52,0,0,938,13,0,237,0,0,0,0,0,0,0,0,0,0],"split_type":[0,0,0,0,0,0,0,0,0,0,0,0,0,0,0,0,0,0,0,0,0,0,0],"sum_hessian":[3.61775E3,1.72575E3,1.892E3,9.1E1,1.63475E3,4.0875E2,1.48325E3,1.325E1,7.775E1,1.60075E3,3.4E1,1.15E1,3.9725E2,1.482E3,1.25E0,7.675E1,1E0,2.5E0,1.59825E3,1.45E1,1.95E1,3.9225E2,5E0],"tree_param":{"num_deleted":"0","num_feature":"1030","num_nodes":"23","size_leaf_vector":"0"}},{"base_weights":[-2.0565557E-1,-1.6602618E0,1.1229337E0,1.2466683E0,-1.8312751E0,-1.7624724E0,1.9017035E0,-1.7931727E0,1.8394574E0,-1.8768404E0,2.993578E-1,1.7588389E0,-1.8706535E0,-2.4084324E-1,1.9036686E0,1.8867111E0,-6.562385E-1,-1.8837042E0,1.3263981E0,-1.7851464E0,1.8170512E0,-1.90012E0,4.2790478E-1],"categories":[],"categories_nodes":[],"categories_segments":[],"categories_sizes":[],"default_left":[1,1,1,1,1,1,1,0,1,1,1,0,1,0,0,0,0,0,0,0,0,0,0],"id":1,"left_children":[1,3,5,7,9,11,13,-1,15,17,19,-1,21,-1,-1,-1,-1,-1,-1,-1,-1,-1,-1],"loss_changes":[6.9719546E3,8.5836523E2,4.2403413E3,1.7678413E2,1.584961E2,1.5614966E2,6.7124023E0,0E0,1.0797363E1,3.7520508E1,1.1373143E2,0E0,2.7213867E1,0E0,0E0,0E0,0E0,0E0,0E0,0E0,0E0,0E0,0E0],"parents":[2147483647,0,0,1,1,2,2,3,3,4,4,5,5,6,6,8,8,9,9,10,10,12,12],"right_children":[2,4,6,8,10,12,14,-1,16,18,20,-1,22,-1,-1,-1,-1,-1,-1,-1,-1,-1,-1],"split_conditions":[1.8773458E1,-3.4778748E1,1.5099279E1,1.473262E1,1.938573E1,-1.8291668E1,1.443293E1,-8.965864E-2,3.046069E1,3.1010303E0,1.1716285E0,8.7941945E-2,2.3029755E1,-1.2042162E-2,9.518343E-2,9.4335556E-2,-3.2811925E-2,-9.418521E-2,6.6319905E-2,-8.925732E-2,9.085256E-2,-9.5006004E-2,2.139524E-2],"split_indices":[955,14,958,313,131,102,828,0,225,820,13,0,237,0,0,0,0,0,0,0,0,0,0],"split_type":[0,0,0,0,0,0,0,0,0,0,0,0,0,0,0,0,0,0,0,0,0,0,0],"sum_hessian":[3.6056353E3,1.7210709E3,1.8845645E3,9.527479E1,1.6257961E3,4.002696E2,1.4842949E3,1.5216928E1,8.005786E1,1.5918718E3,3.392426E1,1.14757E1,3.8879388E2,1.2487305E0,1.4830461E3,7.8809685E1,1.2481759E0,1.5888792E3,2.9927032E0,1.4218868E1,1.970539E1,3.8404398E2,4.7499175E0],"tree_param":{"num_deleted":"0","num_feature":"1030","num_nodes":"23","size_leaf_vector":"0"}},{"base_weights":[-1.8833967E-1,-1.5818264E0,1.0755988E0,1.1698519E0,-1.7505773E0,-1.8194028E0,1.7914395E0,-1.6311309E0,1.7738321E0,-1.7961515E0,4.292081E-1,-1.4573472E0,1.8171433E0,-2.0402165E-1,-1.7238605E0,1.807933E0,-2.442049E-1,-1.8029803E0,1.1640035E0,-1.6961049E0,1.7442839E0,2.0158854E-1,-1.6595879E0,-1.2115179E0,1.8219688E0],"categories":[],"categories_nodes":[],"categories_segments":[],"categories_sizes":[],"default_left":[1,1,1,1,1,0,1,1,1,1,1,1,1,0,0,0,0,0,0,0,0,0,0,0,0],"id":2,"left_children":[1,3,5,7,9,-1,11,13,15,17,19,21,23,-1,-1,-1,-1,-1,-1,-1,-1,-1,-1,-1,-1],"loss_changes":[6.314774E3,7.938633E2,3.899597E3,1.7059851E2,1.6042236E2,0E0,1.2856836E2,2.0442505E0,6.086334E0,3.392285E1,9.720267E1,4.491997E0,2.4077148E1,0E0,0E0,0E0,0E0,0E0,0E0,0E0,0E0,0E0,0E0,0E0,0E0],"parents":[2147483647,0,0,1,1,2,2,3,3,4,4,6,6,7,7,8,8,9,9,10,10,11,11,12,12],"right_children":[2,4,6,8,10,-1,12,14,16,18,20,22,24,-1,-1,-1,-1,-1,-1,-1,-1,-1,-1,-1,-1],"split_conditions":[1.8850914E1,-3.4518135E1,4.2791758E0,1.473262E1,1.938573E1,-9.097014E-2,-2.2251945E1,-4.8190925E-1,-2.0368866E1,3.1010303E0,1.1716285E0,3.8290604E1,-2.0914371E1,-1.0201083E-2,-8.6193025E-2,9.039665E-2,-1.2210245E-2,-9.0149015E-2,5.8200177E-2,-8.480524E-2,8.7214194E-2,1.0079428E-2,-8.2979396E-2,-6.05759E-2,9.109844E-2],"split_indices":[955,14,855,416,131,0,967,715,967,1026,13,1,729,0,0,0,0,0,0,0,0,0,0,0,0],"split_type":[0,0,0,0,0,0,0,0,0,0,0,0,0,0,0,0,0,0,0,0,0,0,0,0,0],"sum_hessian":[3.5833633E3,1.7042184E3,1.8791449E3,9.813188E1,1.6060864E3,3.7223026E2,1.5069146E3,1.7105196E1,8.102669E1,1.573367E3,3.271948E1,1.1391617E1,1.495523E3,1.2388873E0,1.5866308E1,7.978262E1,1.2440585E0,1.5701359E3,3.231181E0,1.2396147E1,2.0323332E1,1.2381957E0,1.015342E1,1.9811553E0,1.4935419E3],"tree_param":{"num_deleted":"0","num_feature":"1030","num_nodes":"25","size_leaf_vector":"0"}},{"base_weights":[-1.8995245E-1,-1.524725E0,1.0291282E0,1.0678166E0,-1.6849947E0,-1.6301031E0,1.7500216E0,-1.6700628E0,1.6626306E0,-1.7232656E0,2.724326E-1,1.621993E0,-1.7319716E0,-1.1724497E0,1.7385198E0,-1.7298446E0,1.1092137E0,-1.6370134E0,1.6663435E0,-1.7437377E0,1.0461828E0],"categories":[],"categories_nodes":[],"categories_segments":[],"categories_sizes":[],"default_left":[1,1,1,1,1,1,0,0,1,1,1,0,1,0,0,0,0,0,0,0,0],"id":3,"left_children":[1,3,5,7,9,11,-1,-1,13,15,17,-1,19,-1,-1,-1,-1,-1,-1,-1,-1],"loss_changes":[5.7694985E3,7.050293E2,3.5555537E3,1.6424231E2,1.199043E2,1.3392102E2,0E0,0E0,1.9670837E1,3.1061523E1,8.640142E1,0E0,1.4383911E1,0E0,0E0,0E0,0E0,0E0,0E0,0E0,0E0],"parents":[2147483647,0,0,1,1,2,2,3,3,4,4,5,5,8,8,9,9,10,10,12,12],"right_children":[2,4,6,8,10,12,-1,-1,14,16,18,-1,20,-1,-1,-1,-1,-1,-1,-1,-1],"split_conditions":[1.8850914E1,-3.4518135E1,1.5099279E1,1.473262E1,1.938573E1,-1.8291668E1,8.750108E-2,-8.350314E-2,3.8231766E1,3.1010303E0,1.1716285E0,8.109965E-2,2.8515667E1,-5.8622487E-2,8.692599E-2,-8.649223E-2,5.5460688E-2,-8.185067E-2,8.3317176E-2,-8.718689E-2,5.2309137E-2],"split_indices":[955,14,958,313,131,102,0,0,1,717,13,0,334,0,0,0,0,0,0,0,0],"split_type":[0,0,0,0,0,0,0,0,0,0,0,0,0,0,0,0,0,0,0,0,0],"sum_hessian":[3.5437063E3,1.6914669E3,1.8522394E3,9.814818E1,1.5933187E3,3.9476587E2,1.4574735E3,1.7194695E1,8.095348E1,1.5628813E3,3.043736E1,1.1536818E1,3.8322906E2,1.7337674E0,7.921971E1,1.5596481E3,3.2332492E0,1.2769999E1,1.766736E1,3.819836E2,1.2454488E0],"tree_param":{"num_deleted":"0","num_feature":"1030","num_nodes":"21","size_leaf_vector":"0"}},{"base_weights":[-1.7791653E-1,-1.4701895E0,1.0025479E0,1.0014338E0,-1.6199425E0,-1.6847862E0,1.6562217E0,-1.4890627E0,1.6253915E0,-1.6582843E0,3.635437E-1,-1.3770508E0,1.6819242E0,-1.6135262E0,2.1694712E-1,-9.833989E-1,1.680664E0,1.5611825E0,-1.6654876E0,-1.566994E0,1.631937E0,1.8414992E-1,-1.5546222E0,-1.164643E0,1.6870013E0],"categories":[],"categories_nodes":[],"categories_segments":[],"categories_sizes":[],"default_left":[1,1,1,1,1,0,1,1,1,1,1,1,1,0,0,0,0,0,0,0,0,0,0,0,0],"id":4,"left_children":[1,3,5,7,9,-1,11,13,15,17,19,21,23,-1,-1,-1,-1,-1,-1,-1,-1,-1,-1,-1,-1],"loss_changes":[5.3153477E3,6.172849E2,3.2017222E3,1.510438E2,1.199043E2,0E0,1.1655151E2,4.5294495E0,1.274971E1,3.8294434E1,7.7411446E1,3.851778E0,2.2969727E1,0E0,0E0,0E0,0E0,0E0,0E0,0E0,0E0,0E0,0E0,0E0,0E0],"parents":[2147483647,0,0,1,1,2,2,3,3,4,4,6,6,7,7,8,8,9,9,10,10,11,11,12,12],"right_children":[2,4,6,8,10,-1,12,14,16,18,20,22,24,-1,-1,-1,-1,-1,-1,-1,-1,-1,-1,-1,-1],"split_conditions":[1.8850914E1,-3.3871887E1,4.2791758E0,1.4777021E1,1.938573E1,-8.423931E-2,-2.2251945E1,8.6493886E-1,-1.2478511E1,-4.294087E1,1.1716285E0,-1.2912695E0,-2.0914371E1,-8.067631E-2,1.0847356E-2,-4.9169946E-2,8.40332E-2,7.805913E-2,-8.327439E-2,-7.83497E-2,8.159685E-2,9.207496E-3,-7.773111E-2,-5.8232155E-2,8.435007E-2],"split_indices":[852,14,752,416,28,0,864,116,9,835,13,17,729,0,0,0,0,0,0,0,0,0,0,0,0],"split_type":[0,0,0,0,0,0,0,0,0,0,0,0,0,0,0,0,0,0,0,0,0,0,0,0,0],"sum_hessian":[3.482406E3,1.6623547E3,1.8200513E3,9.46415E1,1.5677133E3,3.557875E2,1.4642638E3,1.8682945E1,7.595856E1,1.538144E3,2.9569195E1,1.1861403E1,1.4524023E3,1.7463118E1,1.2198286E0,1.2275565E0,7.4731E1,2.9521935E0,1.5351918E3,1.1631001E1,1.7938194E1,1.2075579E0,1.0653846E1,2.1792665E0,1.4502231E3],"tree_param":{"num_deleted":"0","num_feature":"1030","num_nodes":"25","size_leaf_vector":"0"}},{"base_weights":[-1.7319976E-1,-1.4213396E0,9.61882E-1,1.1251705E0,-1.5614439E0,-1.5199842E0,1.6316842E0,-1.5260781E0,1.6244209E0,-1.6004666E0,2.6690042E-1,1.503048E0,-1.6093955E0,-1.6072718E0,1.2310871E0,-1.5365931E0,1.5612576E0,1.871047E-1,-1.6301258E0],"categories":[],"categories_nodes":[],"categories_segments":[],"categories_sizes":[],"default_left":[1,1,1,1,1,1,0,0,0,1,1,0,1,0,0,0,0,0,0],"id":5,"left_children":[1,3,5,7,9,11,-1,-1,-1,13,15,-1,17,-1,-1,-1,-1,-1,-1],"loss_changes":[4.856181E3,5.8419434E2,2.9868335E3,1.1593358E2,1.1085669E2,1.0568457E2,0E0,0E0,0E0,3.1182861E1,7.9903015E1,0E0,1.4142517E1,0E0,0E0,0E0,0E0,0E0,0E0],"parents":[2147483647,0,0,1,1,2,2,3,3,4,4,5,5,9,9,10,10,12,12],"right_children":[2,4,6,8,10,12,-1,-1,-1,14,16,-1,18,-1,-1,-1,-1,-1,-1],"split_conditions":[1.885524E1,-3.5699394E1,1.5099279E1,1.4645058E1,1.938573E1,-1.8291668E1,8.158421E-2,-7.630391E-2,8.1221044E-2,3.1010303E0,1.1716285E0,7.51524E-2,-5.4332227E-1,-8.0363594E-2,6.1554354E-2,-7.682966E-2,7.8062885E-2,9.355235E-3,-8.150629E-2],"split_indices":[955,117,958,107,131,102,0,0,0,923,13,0,97,0,0,0,0,0,0],"split_type":[0,0,0,0,0,0,0,0,0,0,0,0,0,0,0,0,0,0,0],"sum_hessian":[3.425748E3,1.6314966E3,1.7942516E3,8.471428E1,1.5467822E3,3.8105005E2,1.4132015E3,1.3098502E1,7.1615776E1,1.5145809E3,3.220132E1,1.0492259E1,3.705578E2,1.511381E3,3.2000074E0,1.3376298E1,1.8825022E1,4.135621E0,3.6642218E2],"tree_param":{"num_deleted":"0","num_feature":"1030","num_nodes":"19","size_leaf_vector":"0"}},{"base_weights":[-1.7078936E-1,-1.3698466E0,9.367202E-1,9.5436835E-1,-1.5190387E0,-1.4717157E0,1.582514E0,-1.5151341E0,1.506683E0,-1.5546479E0,3.1778702E-1,1.4093595E0,-1.558746E0,-1.0968766E0,1.584155E0,-1.5619477E0,1.3699887E0,-1.4726297E0,1.534337E0,-1.5717393E0,9.8813355E-1],"categories":[],"categories_nodes":[],"categories_segments":[],"categories_sizes":[],"default_left":[1,1,1,1,1,1,0,0,1,1,1,0,1,0,0,0,0,0,0,0,0],"id":6,"left_children":[1,3,5,7,9,11,-1,-1,13,15,17,-1,19,-1,-1,-1,-1,-1,-1,-1,-1],"loss_changes":[4.4523394E3,5.596482E2,2.7133105E3,1.3555853E2,9.946069E1,9.473584E1,0E0,0E0,1.7945526E1,3.3831787E1,6.674363E1,0E0,1.342395E1,0E0,0E0,0E0,0E0,0E0,0E0,0E0,0E0],"parents":[2147483647,0,0,1,1,2,2,3,3,4,4,5,5,8,8,9,9,10,10,12,12],"right_children":[2,4,6,8,10,12,-1,-1,14,16,18,-1,20,-1,-1,-1,-1,-1,-1,-1,-1],"split_conditions":[1.8850914E1,-3.3871887E1,1.5099279E1,1.4652158E1,1.938573E1,-5.50509E1,7.91257E-2,-7.575671E-2,3.8231766E1,3.1010303E0,1.1716285E0,7.046797E-2,2.8515667E1,-5.484383E-2,7.920775E-2,-7.809739E-2,6.849944E-2,-7.363149E-2,7.6716855E-2,-7.8586966E-2,4.9406677E-2],"split_indices":[852,14,855,4,28,96,0,0,1,717,13,0,231,0,0,0,0,0,0,0,0],"split_type":[0,0,0,0,0,0,0,0,0,0,0,0,0,0,0,0,0,0,0,0,0],"sum_hessian":[3.3507812E3,1.6087806E3,1.7420007E3,9.671358E1,1.512067E3,3.6806253E2,1.3739382E3,1.7358267E1,7.935531E1,1.4834618E3,2.8605247E1,1.0346755E1,3.5771576E2,1.9128503E0,7.744246E1,1.4802332E3,3.228636E0,1.1487867E1,1.711738E1,3.56281E2,1.4347469E0],"tree_param":{"num_deleted":"0","num_feature":"1030","num_nodes":"21","size_leaf_vector":"0"}},{"base_weights":[-1.7100264E-1,-1.338046E0,9.020961E-1,9.212347E-1,-1.474689E0,-1.4599677E0,1.5308193E0,-1.4687338E0,1.4658717E0,1.2304754E0,-1.4950075E0,1.3579849E0,-1.5114241E0,-5.384093E-1,1.5385869E0,-1.0230867E0,1.5366914E0,-8.218342E-1,1.5313156E0,-1.5160815E0,-5.629721E-2,-1.5315081E0,1.0927572E0,-1.1978816E0,9.1160077E-1],"categories":[],"categories_nodes":[],"categories_segments":[],"categories_sizes":[],"default_left":[1,1,1,1,1,1,1,0,1,1,1,0,1,1,0,0,0,0,0,0,0,0,0,0,0],"id":7,"left_children":[1,3,5,7,9,11,13,-1,15,17,19,-1,21,23,-1,-1,-1,-1,-1,-1,-1,-1,-1,-1,-1],"loss_changes":[4.12758E3,4.8874658E2,2.5523247E3,1.2015496E2,8.368799E1,5.4468872E1,2.2633545E1,0E0,1.467421E1,8.451307E0,4.474048E1,0E0,2.026593E1,6.6519046E0,0E0,0E0,0E0,0E0,0E0,0E0,0E0,0E0,0E0,0E0,0E0],"parents":[2147483647,0,0,1,1,2,2,3,3,4,4,5,5,6,6,8,8,9,9,10,10,12,12,13,13],"right_children":[2,4,6,8,10,12,14,-1,16,18,20,-1,22,24,-1,-1,-1,-1,-1,-1,-1,-1,-1,-1,-1],"split_conditions":[1.8850914E1,-3.3893456E1,1.4363501E1,1.4777021E1,-3.852924E1,-5.516713E1,-2.2158405E1,-7.343669E-2,1.3893343E1,3.8927643E1,1.8827179E1,6.789925E-2,1.5188688E1,3.0015774E0,7.6929346E-2,-5.1154334E-2,7.6834574E-2,-4.109171E-2,7.656578E-2,-7.580408E-2,-2.8148605E-3,-7.6575406E-2,5.463786E-2,-5.989408E-2,4.558004E-2],"split_indices":[749,14,649,313,835,96,761,0,931,1,955,0,958,3,0,0,0,0,0,0,0,0,0,0,0],"split_type":[0,0,0,0,0,0,0,0,0,0,0,0,0,0,0,0,0,0,0,0,0,0,0,0,0],"sum_hessian":[3.293897E3,1.5777623E3,1.7161345E3,8.9654655E1,1.4881077E3,3.6048785E2,1.3556467E3,1.6324217E1,7.333044E1,1.0649851E1,1.4774578E3,6.009204E0,3.5447864E2,4.8143425E0,1.3508324E3,1.6567751E0,7.167366E1,1.1401353E0,9.509715E0,1.4560758E3,2.1382008E1,3.521745E2,2.3041382E0,3.4287908E0,1.3855516E0],"tree_param":{"num_deleted":"0","num_feature":"1030","num_nodes":"25","size_leaf_vector":"0"}},{"base_weights":[-1.6413589E-1,-1.303641E0,8.782101E-1,9.224106E-1,-1.4374291E0,-1.3935872E0,1.4971768E0,-1.424388E0,1.4290679E0,-1.476101E0,1.5001279E-1,1.3406864E0,-1.4806736E0,-2.1197048E-1,1.4988228E0,-9.619418E-1,1.490327E0,-1.4824581E0,1.3380442E0,-1.4260713E0,1.5159178E0,9.4275576E-1,-1.4931762E0],"categories":[],"categories_nodes":[],"categories_segments":[],"categories_sizes":[],"default_left":[1,1,1,1,1,1,1,0,1,1,1,0,1,0,0,0,0,0,0,0,0,0,0],"id":8,"left_children":[1,3,5,7,9,11,13,-1,15,17,19,-1,21,-1,-1,-1,-1,-1,-1,-1,-1,-1,-1],"loss_changes":[3.8181333E3,4.5867334E2,2.3629739E3,1.06278465E2,8.917383E1,8.7710754E1,4.0307617E0,0E0,1.2067932E1,2.7290771E1,7.829965E1,0E0,1.1993591E1,0E0,0E0,0E0,0E0,0E0,0E0,0E0,0E0,0E0,0E0],"parents":[2147483647,0,0,1,1,2,2,3,3,4,4,5,5,6,6,8,8,9,9,10,10,12,12],"right_children":[2,4,6,8,10,12,14,-1,16,18,20,-1,22,-1,-1,-1,-1,-1,-1,-1,-1,-1,-1],"split_conditions":[1.8773458E1,-3.4518135E1,1.5099279E1,1.473262E1,1.9135197E1,-5.511023E1,1.443293E1,-7.121941E-2,3.8231766E1,3.1010303E0,1.1716285E0,6.703433E-2,-1.8889004E1,-1.05985245E-2,7.494114E-2,-4.809709E-2,7.451635E-2,-7.4122906E-2,6.690221E-2,-7.130357E-2,7.579589E-2,4.713779E-2,-7.465881E-2],"split_indices":[955,14,958,313,28,96,725,0,1,820,13,0,578,0,0,0,0,0,0,0,0,0,0],"split_type":[0,0,0,0,0,0,0,0,0,0,0,0,0,0,0,0,0,0,0,0,0,0,0],"sum_hessian":[3.2126064E3,1.5346539E3,1.6779525E3,8.6671104E1,1.4479828E3,3.5901306E2,1.3189395E3,1.5067627E1,7.160347E1,1.4136156E3,3.43672E1,1.0637263E1,3.483758E2,1.14604E0,1.3177935E3,1.4214127E0,7.018206E1,1.4109016E3,2.71398E0,1.5935533E1,1.8431667E1,1.4061899E0,3.469696E2],"tree_param":{"num_deleted":"0","num_feature":"1030","num_nodes":"23","size_leaf_vector":"0"}},{"base_weights":[-1.578312E-1,-1.2692863E0,8.669094E-1,9.080823E-1,-1.4039934E0,-1.4604523E0,1.4352156E0,-1.3083131E0,1.4125572E0,-1.4375874E0,1.9813429E-1,-1.3538638E0,1.4566461E0,-8.675979E-2,-1.3909125E0,1.4533997E0,-5.7750314E-1,-1.445096E0,1.2135155E0,-1.3737346E0,1.4384624E0,1.4632378E0,-1.1169642E0],"categories":[],"categories_nodes":[],"categories_segments":[],"categories_sizes":[],"default_left":[1,1,1,1,1,0,1,1,1,1,1,0,1,0,0,0,0,0,0,0,0,0,0],"id":9,"left_children":[1,3,5,7,9,-1,11,13,15,17,19,-1,21,-1,-1,-1,-1,-1,-1,-1,-1,-1,-1],"loss_changes":[3.5690342E3,4.4215796E2,2.15868E3,1.00448105E2,7.6494385E1,0E0,8.0332275E1,1.5814285E0,6.7170105E0,2.936377E1,6.0386135E1,0E0,2.3713135E1,0E0,0E0,0E0,0E0,0E0,0E0,0E0,0E0,0E0,0E0],"parents":[2147483647,0,0,1,1,2,2,3,3,4,4,6,6,7,7,8,8,9,9,10,10,12,12],"right_children":[2,4,6,8,10,-1,12,14,16,18,20,-1,22,-1,-1,-1,-1,-1,-1,-1,-1,-1,-1],"split_conditions":[1.8850914E1,-3.4518135E1,4.2791758E0,1.473262E1,1.938573E1,-7.302262E-2,1.4305494E1,-2.4461899E1,5.843E1,3.1010303E0,1.1961945E0,-6.7693196E-2,5.225359E0,-4.3379897E-3,-6.954563E-2,7.266998E-2,-2.8875157E-2,-7.22548E-2,6.0675777E-2,-6.868673E-2,7.192312E-2,7.316189E-2,-5.584821E-2],"split_indices":[955,14,855,416,28,0,622,57,243,820,13,0,57,0,0,0,0,0,0,0,0,0,0],"split_type":[0,0,0,0,0,0,0,0,0,0,0,0,0,0,0,0,0,0,0,0,0,0,0],"sum_hessian":[3.131643E3,1.5021458E3,1.6294973E3,8.71841E1,1.4149617E3,3.194984E2,1.3099989E3,1.5869314E1,7.131478E1,1.3860022E3,2.895952E1,9.514814E0,1.3004841E3,1.1349545E0,1.473436E1,7.014486E1,1.1699274E0,1.3825413E3,3.4608552E0,1.2725246E1,1.6234274E1,1.2975922E3,2.892024E0],"tree_param":{"num_deleted":"0","num_feature":"1030","num_nodes":"23","size_leaf_vector":"0"}},{"base_weights":[-1.5236396E-1,-1.2372888E0,8.5079837E-1,1.0473338E0,-1.359724E0,-1.4275522E0,1.4021226E0,-1.3103526E0,1.3959943E0,-1.3980163E0,3.1867266E-1,-1.1716418E0,1.425364E0,1.418171E0,5.149242E-2,1.6534435E0,-1.4057163E0,-1.3408451E0,1.3857572E0,1.9070007E-1,-1.3257066E0,1.4295222E0,-9.725718E-1],"categories":[],"categories_nodes":[],"categories_segments":[],"categories_sizes":[],"default_left":[1,1,1,1,1,0,1,0,1,1,1,1,1,0,0,0,0,0,0,0,0,0,0],"id":10,"left_children":[1,3,5,7,9,-1,11,-1,13,15,17,19,21,-1,-1,-1,-1,-1,-1,-1,-1,-1,-1],"loss_changes":[3.3298733E3,4.1255835E2,1.9989191E3,6.3750595E1,9.013281E1,0E0,7.826807E1,0E0,1.8980865E0,3.4385742E1,5.8422333E1,2.7732887E0,1.404834E1,0E0,0E0,0E0,0E0,0E0,0E0,0E0,0E0,0E0,0E0],"parents":[2147483647,0,0,1,1,2,2,3,3,4,4,6,6,8,8,9,9,10,10,11,11,12,12],"right_children":[2,4,6,8,10,-1,12,-1,14,16,18,20,22,-1,-1,-1,-1,-1,-1,-1,-1,-1,-1],"split_conditions":[1.8850914E1,-3.5800724E1,4.2791758E0,1.4645058E1,1.938573E1,-7.137761E-2,-2.2251945E1,-6.551763E-2,1.2241438E2,-4.294087E1,1.1716285E0,-6.915852E0,5.225359E0,7.0908554E-2,2.574621E-3,8.267217E-2,-7.028582E-2,-6.7042254E-2,6.928786E-2,9.535003E-3,-6.6285335E-2,7.147611E-2,-4.862859E-2],"split_indices":[955,14,855,4,131,0,967,0,92,938,13,11,57,0,0,0,0,0,0,0,0,0,0],"split_type":[0,0,0,0,0,0,0,0,0,0,0,0,0,0,0,0,0,0,0,0,0,0,0],"sum_hessian":[3.0575776E3,1.4688145E3,1.5887632E3,7.432719E1,1.3944872E3,3.092396E2,1.2795236E3,9.220275E0,6.510691E1,1.3635453E3,3.0941936E1,1.100863E1,1.2685149E3,6.3996532E1,1.1103765E0,2.8940709E0,1.3606512E3,1.2009049E1,1.8932886E1,1.0943017E0,9.914329E0,1.2667223E3,1.7927088E0],"tree_param":{"num_deleted":"0","num_feature":"1030","num_nodes":"23","size_leaf_vector":"0"}},{"base_weights":[-1.4754829E-1,-1.2090448E0,8.2830447E-1,8.65065E-1,-1.3390621E0,-1.2946532E0,1.4000827E0,-1.3302007E0,1.3368905E0,-1.3736619E0,2.6985866E-1,1.2996019E0,-1.3775139E0,-9.465997E-1,1.4036468E0,-1.3814874E0,1.221517E0,-1.3063316E0,1.3784106E0,-1.3989891E0,4.6077248E-1],"categories":[],"categories_nodes":[],"categories_segments":[],"categories_sizes":[],"default_left":[1,1,1,1,1,1,0,0,1,1,1,0,1,0,0,0,0,0,0,0,0],"id":11,"left_children":[1,3,5,7,9,11,-1,-1,13,15,17,-1,19,-1,-1,-1,-1,-1,-1,-1,-1],"loss_changes":[3.0662686E3,3.8349072E2,1.8740227E3,8.903224E1,7.46626E1,7.225098E1,0E0,0E0,1.1974297E1,2.82229E1,5.235123E1,0E0,1.3203369E1,0E0,0E0,0E0,0E0,0E0,0E0,0E0,0E0],"parents":[2147483647,0,0,1,1,2,2,3,3,4,4,5,5,8,8,9,9,10,10,12,12],"right_children":[2,4,6,8,10,12,-1,-1,14,16,18,-1,20,-1,-1,-1,-1,-1,-1,-1,-1],"split_conditions":[1.8850914E1,-3.3871887E1,1.5099279E1,1.473262E1,1.938573E1,-5.50509E1,7.0004135E-2,-6.651004E-2,1.3893343E1,3.1010303E0,1.1716285E0,6.49801E-2,2.3029755E1,-4.732999E-2,7.0182346E-2,-6.907437E-2,6.1075848E-2,-6.531658E-2,6.892053E-2,-6.9949456E-2,2.3038624E-2],"split_indices":[955,14,958,313,28,96,0,0,931,820,13,0,237,0,0,0,0,0,0,0,0],"split_type":[0,0,0,0,0,0,0,0,0,0,0,0,0,0,0,0,0,0,0,0,0],"sum_hessian":[2.9581394E3,1.4167798E3,1.5413596E3,8.3239624E1,1.3335402E3,3.2678268E2,1.214577E3,1.4403783E1,6.883584E1,1.3056093E3,2.7930862E1,9.659917E0,3.1712277E2,1.5808482E0,6.725499E1,1.3021504E3,3.458855E0,1.1459212E1,1.647165E1,3.1369705E2,3.4257054E0],"tree_param":{"num_deleted":"0","num_feature":"1030","num_nodes":"21","size_leaf_vector":"0"}},{"base_weights":[-1.4726004E-1,-1.1864051E0,8.0973715E-1,7.884708E-1,-1.3106025E0,-1.3706778E0,1.3477929E0,-1.3108066E0,1.2964573E0,1.1778272E0,-1.3316749E0,-1.1068116E0,1.369069E0,-9.6531665E-1,1.3733784E0,1.421915E0,-3.1074244E-1,-1.3490399E0,3.9739895E-1,-1.2603801E0,1.7723198E-1,-9.478655E-1,1.3736056E0],"categories":[],"categories_nodes":[],"categories_segments":[],"categories_sizes":[],"default_left":[1,1,1,1,1,0,1,0,1,1,1,1,1,0,0,0,0,0,0,0,0,0,0],"id":12,"left_children":[1,3,5,7,9,-1,11,-1,13,15,17,19,21,-1,-1,-1,-1,-1,-1,-1,-1,-1,-1],"loss_changes":[2.8457822E3,3.3752063E2,1.749651E3,8.892645E1,6.926904E1,0E0,6.39458E1,0E0,1.2871208E1,4.5737333E0,3.898999E1,2.3580818E0,1.376416E1,0E0,0E0,0E0,0E0,0E0,0E0,0E0,0E0,0E0,0E0],"parents":[2147483647,0,0,1,1,2,2,3,3,4,4,6,6,8,8,9,9,10,10,11,11,12,12],"right_children":[2,4,6,8,10,-1,12,-1,14,16,18,20,22,-1,-1,-1,-1,-1,-1,-1,-1,-1,-1],"split_conditions":[1.8850914E1,-3.3871887E1,4.2791758E0,1.473262E1,-3.852924E1,-6.853389E-2,-2.2251945E1,-6.5540336E-2,1.3893343E1,4.363718E0,3.0457106E0,1.7824799E1,-2.0914371E1,-4.8265833E-2,6.8668924E-2,7.109576E-2,-1.5537122E-2,-6.7452E-2,1.9869948E-2,-6.301901E-2,8.8615995E-3,-4.7393274E-2,6.868028E-2],"split_indices":[852,14,752,313,938,0,864,0,931,52,1026,7,626,0,0,0,0,0,0,0,0,0,0],"split_type":[0,0,0,0,0,0,0,0,0,0,0,0,0,0,0,0,0,0,0,0,0,0,0],"sum_hessian":[2.859673E3,1.3708792E3,1.488794E3,8.079545E1,1.2900837E3,2.9436462E2,1.1944293E3,1.5433872E1,6.536158E1,1.0371894E1,1.2797118E3,9.825693E0,1.1846036E3,1.769914E0,6.3591667E1,8.949224E0,1.4226693E0,1.2672051E3,1.2506711E1,8.792555E0,1.0331386E0,1.9086121E0,1.1826951E3],"tree_param":{"num_deleted":"0","num_feature":"1030","num_nodes":"23","size_leaf_vector":"0"}},{"base_weights":[-1.4467998E-1,-1.1851978E0,7.770579E-1,7.884453E-1,-1.3026619E0,-1.2511152E0,1.3437867E0,-1.2757529E0,1.2653149E0,1.3026999E0,-1.3224223E0,-1.3409508E0,7.171251E-1,1.3501048E0,-9.876799E-1,-9.089275E-1,1.3371834E0,1.6880266E-1,1.4148924E0,-1.3361411E0,4.535736E-1,2.4413073E-1,-1.3476988E0,-1.0999807E0,1.3061159E0,-8.679841E-1,1.3539891E0],"categories":[],"categories_nodes":[],"categories_segments":[],"categories_sizes":[],"default_left":[1,1,1,1,1,1,1,0,1,1,1,1,1,1,0,0,0,0,0,0,0,0,0,0,0,0,0],"id":13,"left_children":[1,3,5,7,9,11,13,-1,15,17,19,21,23,25,-1,-1,-1,-1,-1,-1,-1,-1,-1,-1,-1,-1,-1],"loss_changes":[2.673174E3,3.0454016E2,1.7005994E3,7.46183E1,6.535718E1,5.8131805E1,1.8357666E1,0E0,1.0707924E1,1.0088673E0,3.0506592E1,3.6400757E0,1.7238949E1,1.1109619E1,0E0,0E0,0E0,0E0,0E0,0E0,0E0,0E0,0E0,0E0,0E0,0E0,0E0],"parents":[2147483647,0,0,1,1,2,2,3,3,4,4,5,5,6,6,8,8,9,9,10,10,11,11,12,12,13,13],"right_children":[2,4,6,8,10,12,14,-1,16,18,20,22,24,26,-1,-1,-1,-1,-1,-1,-1,-1,-1,-1,-1,-1,-1],"split_conditions":[1.8500824E1,-3.4518135E1,1.5119488E1,1.473262E1,-3.993946E1,1.686721E1,5.1168466E0,-6.378765E-2,3.8231766E1,2.3640409E0,3.06819E0,1.058172E0,1.0356723E1,1.4109248E1,-4.9383994E-2,-4.5446377E-2,6.685917E-2,8.440133E-3,7.0744626E-2,-6.6807054E-2,2.267868E-2,1.2206537E-2,-6.738494E-2,-5.4999035E-2,6.530579E-2,-4.3399207E-2,6.7699455E-2],"split_indices":[955,14,958,313,938,134,881,0,1,13,1026,733,4,416,0,0,0,0,0,0,0,0,0,0,0,0,0],"split_type":[0,0,0,0,0,0,0,0,0,0,0,0,0,0,0,0,0,0,0,0,0,0,0,0,0,0,0],"sum_hessian":[2.7852537E3,1.3081935E3,1.47706E3,7.316448E1,1.235029E3,3.2232748E2,1.1547325E3,1.3416029E1,5.9748455E1,8.807856E0,1.2262212E3,3.085626E2,1.3764889E1,1.1520316E3,2.7009559E0,1.5390917E0,5.8209362E1,1.0185221E0,7.789334E0,1.2170675E3,9.153642E0,1.1589124E0,3.074037E2,3.1571474E0,1.0607741E1,1.6250591E0,1.1504066E3],"tree_param":{"num_deleted":"0","num_feature":"1030","num_nodes":"27","size_leaf_vector":"0"}},{"base_weights":[-1.4467756E-1,-1.1428035E0,7.7826226E-1,7.456901E-1,-1.2508357E0,-1.2582783E0,1.31971E0,-1.2061857E0,1.2991802E0,-1.2902037E0,4.014997E-1,1.1012E0,-1.3002521E0,-9.8364395E-1,1.3261878E0,-1.2581615E0,-2.1380761E-1,1.3232915E0,3.7227883E-3,1.3137186E0,-1.2997152E0,-1.252684E0,1.2820832E0,-1.3229324E0,9.5680416E-1,1.327535E0,-3.846871E-3],"categories":[],"categories_nodes":[],"categories_segments":[],"categories_sizes":[],"default_left":[1,1,1,1,1,1,1,1,1,1,1,0,1,0,1,0,0,0,0,0,0,0,0,0,0,0,0],"id":14,"left_children":[1,3,5,7,9,11,13,15,17,19,21,-1,23,-1,25,-1,-1,-1,-1,-1,-1,-1,-1,-1,-1,-1,-1],"loss_changes":[2.486682E3,2.6550366E2,1.5482786E3,7.8051605E1,8.0333374E1,3.0657043E1,1.7843994E1,5.644741E-1,1.7329254E0,3.1395508E1,4.4309814E1,0E0,1.6131287E1,0E0,1.9866943E0,0E0,0E0,0E0,0E0,0E0,0E0,0E0,0E0,0E0,0E0,0E0,0E0],"parents":[2147483647,0,0,1,1,2,2,3,3,4,4,5,5,6,6,7,7,8,8,9,9,10,10,12,12,14,14],"right_children":[2,4,6,8,10,12,14,16,18,20,22,-1,24,-1,26,-1,-1,-1,-1,-1,-1,-1,-1,-1,-1,-1,-1],"split_conditions":[1.8850914E1,-3.3893456E1,1.4363501E1,1.5496386E1,1.9145725E1,1.1685687E0,1.4063923E1,1.4132797E1,4.506613E0,-4.055407E1,1.6978844E1,5.506E-2,1.2029335E1,-4.91822E-2,3.0636187E0,-6.2908076E-2,-1.0690381E-2,6.6164576E-2,1.8613941E-4,6.568593E-2,-6.498576E-2,-6.26342E-2,6.410416E-2,-6.614662E-2,4.7840208E-2,6.637675E-2,-1.9234355E-4],"split_indices":[543,14,443,313,955,630,4,688,0,835,752,0,339,0,384,0,0,0,0,0,0,0,0,0,0,0,0],"split_type":[0,0,0,0,0,0,0,0,0,0,0,0,0,0,0,0,0,0,0,0,0,0,0,0,0,0,0],"sum_hessian":[2.6973987E3,1.2957999E3,1.4015988E3,6.9796486E1,1.2260034E3,2.9409583E2,1.1075029E3,1.5159049E1,5.4637432E1,1.1976869E3,2.8316492E1,4.6992784E0,2.8939655E2,2.6829035E0,1.1048201E3,1.4150111E1,1.0089375E0,5.3617996E1,1.0194364E0,3.859896E0,1.193827E3,9.690411E0,1.8626081E1,2.8692722E2,2.4693484E0,1.1037039E3,1.1161133E0],"tree_param":{"num_deleted":"0","num_feature":"1030","num_nodes":"27","size_leaf_vector":"0"}},{"base_weights":[-1.3572791E-1,-1.1178801E0,7.7544504E-1,7.415069E-1,-1.2307531E0,-1.2082965E0,1.3059565E0,-1.1922396E0,1.236515E0,-1.3071462E0,-5.3048676E-1,1.1622598E0,-1.2761623E0,-2.3846E-1,-1.2488801E0,-7.895632E-1,1.3031713E0,-3.557134E-3,-1.3084619E0,-1.2950379E0,1.7123438E0,1.0507945E0,-1.3022081E0],"categories":[],"categories_nodes":[],"categories_segments":[],"categories_sizes":[],"default_left":[1,1,1,1,1,1,0,1,1,1,1,0,1,0,0,0,0,0,0,0,0,0,0],"id":15,"left_children":[1,3,5,7,9,11,-1,13,15,17,19,-1,21,-1,-1,-1,-1,-1,-1,-1,-1,-1,-1],"loss_changes":[2.3369546E3,2.6465906E2,1.4272917E3,7.09153E1,6.2706177E1,4.75542E1,0E0,5.284424E-1,8.895645E0,1.8270264E0,2.0499614E2,0E0,1.8270325E1,0E0,0E0,0E0,0E0,0E0,0E0,0E0,0E0,0E0,0E0],"parents":[2147483647,0,0,1,1,2,2,3,3,4,4,5,5,7,7,8,8,9,9,10,10,12,12],"right_children":[2,4,6,8,10,12,-1,14,16,18,20,-1,22,-1,-1,-1,-1,-1,-1,-1,-1,-1,-1],"split_conditions":[1.8850914E1,-3.3893456E1,1.5099279E1,1.4316988E1,4.871553E0,1.1685687E0,6.529783E-2,-3.7658627E1,1.4419198E1,-1.9405792E1,7.0487614E0,5.811299E-2,1.3622733E0,-1.1923E-2,-6.244401E-2,-3.947816E-2,6.515857E-2,-1.778567E-4,-6.5423094E-2,-6.475189E-2,8.561719E-2,5.2539725E-2,-6.511041E-2],"split_indices":[646,14,649,931,657,733,0,426,4,205,749,0,600,0,0,0,0,0,0,0,0,0,0],"split_type":[0,0,0,0,0,0,0,0,0,0,0,0,0,0,0,0,0,0,0,0,0,0,0],"sum_hessian":[2.6094148E3,1.2556858E3,1.353729E3,7.154452E1,1.1841412E3,2.8536942E2,1.0683595E3,1.4294521E1,5.725E1,1.0668864E3,1.172549E2,7.493531E0,2.778759E2,1.0933561E0,1.3201165E1,1.4780502E0,5.577195E1,1.0794317E0,1.0658069E3,8.776095E1,2.9493952E1,2.6403613E0,2.7523553E2],"tree_param":{"num_deleted":"0","num_feature":"1030","num_nodes":"23","size_leaf_vector":"0"}},{"base_weights":[-1.3384636E-1,-1.124231E0,7.451646E-1,7.1424305E-1,-1.2415494E0,-1.1791644E0,1.2818174E0,-1.2206564E0,1.1987692E0,-1.2732873E0,2.3134062E-1,-1.2790564E0,7.243129E-1,1.2870328E0,-8.7897164E-1,-9.1525733E-1,1.2840568E0,-1.2812675E0,1.1068469E0,-1.1870427E0,1.3595146E0,1.4853166E-2,-1.2840444E0,-1.0152478E0,1.2393469E0,-7.653183E-1,1.2903728E0],"categories":[],"categories_nodes":[],"categories_segments":[],"categories_sizes":[],"default_left":[1,1,1,1,1,1,1,0,1,1,1,1,1,1,0,0,0,0,0,0,0,0,0,0,0,0,0],"id":16,"left_children":[1,3,5,7,9,11,13,-1,15,17,19,21,23,25,-1,-1,-1,-1,-1,-1,-1,-1,-1,-1,-1,-1,-1],"loss_changes":[2.1960327E3,2.5670862E2,1.3817238E3,6.875953E1,5.243091E1,5.644165E1,1.2913818E1,0E0,1.1616608E1,2.2158081E1,4.0613316E1,1.8117981E0,1.4873289E1,8.140259E0,0E0,0E0,0E0,0E0,0E0,0E0,0E0,0E0,0E0,0E0,0E0,0E0,0E0],"parents":[2147483647,0,0,1,1,2,2,3,3,4,4,5,5,6,6,8,8,9,9,10,10,11,11,12,12,13,13],"right_children":[2,4,6,8,10,12,14,-1,16,18,20,22,24,26,-1,-1,-1,-1,-1,-1,-1,-1,-1,-1,-1,-1,-1],"split_conditions":[1.8541065E1,-3.3871887E1,1.5119488E1,1.473262E1,1.911668E1,1.686721E1,5.1168466E0,-6.103282E-2,1.3893343E1,3.0987844E0,1.1716285E0,-2.7663849E1,1.3304726E1,1.4109248E1,-4.3948583E-2,-4.5762867E-2,6.420284E-2,-6.406338E-2,5.5342346E-2,-5.9352137E-2,6.797573E-2,7.4265833E-4,-6.420222E-2,-5.0762393E-2,6.1967343E-2,-3.8265914E-2,6.4518645E-2],"split_indices":[955,14,958,313,28,31,881,0,931,820,13,11,4,416,0,0,0,0,0,0,0,0,0,0,0,0,0],"split_type":[0,0,0,0,0,0,0,0,0,0,0,0,0,0,0,0,0,0,0,0,0,0,0,0,0,0,0],"sum_hessian":[2.5205928E3,1.1850801E3,1.3355127E3,7.078194E1,1.1142981E3,2.909669E2,1.0445458E3,1.3870884E1,5.6911053E1,1.0909261E3,2.3371906E1,2.767704E2,1.4196502E1,1.0424341E3,2.1117003E0,1.8295851E0,5.5081467E1,1.0877408E3,3.1853156E0,1.0331088E1,1.3040818E1,1.0552477E0,2.7571515E2,3.0211494E0,1.1175353E1,1.3230401E0,1.041111E3],"tree_param":{"num_deleted":"0","num_feature":"1030","num_nodes":"27","size_leaf_vector":"0"}},{"base_weights":[-1.3436837E-1,-1.0929835E0,7.5116295E-1,9.1137433E-1,-1.1923202E0,-1.2467607E0,1.2508817E0,1.3505291E0,-1.118136E0,-1.2304342E0,2.7921656E-1,8.144515E-1,-1.2642424E0,-9.405721E-1,1.2660657E0,1.8421457E0,1.2400712E0,-1.2558503E0,-3.6774763E-1,-1.1718477E0,1.158231E0,-3.1797776E-3,-1.0850635E0,-7.137143E-1,1.2692119E0],"categories":[],"categories_nodes":[],"categories_segments":[],"categories_sizes":[],"default_left":[1,1,1,1,1,1,1,1,0,1,1,0,0,1,1,0,0,0,0,0,0,0,0,0,0],"id":17,"left_children":[1,3,5,7,9,11,13,15,-1,17,19,-1,-1,21,23,-1,-1,-1,-1,-1,-1,-1,-1,-1,-1],"loss_changes":[2.053406E3,2.323457E2,1.257043E3,5.0897305E1,6.2434937E1,1.0113495E1,3.4678955E1,2.1396637E-1,0E0,2.320337E1,3.8047417E1,0E0,0E0,1.0122361E0,7.134033E0,0E0,0E0,0E0,0E0,0E0,0E0,0E0,0E0,0E0,0E0],"parents":[2147483647,0,0,1,1,2,2,3,3,4,4,5,5,6,6,7,7,9,9,10,10,13,13,14,14],"right_children":[2,4,6,8,10,12,14,16,-1,18,20,-1,-1,22,24,-1,-1,-1,-1,-1,-1,-1,-1,-1,-1],"split_conditions":[1.8850914E1,-5.5576164E1,1.1332574E1,-2.1541702E1,1.8996878E1,-5.56624E1,-2.2251945E1,7.6389307E-1,-5.5906802E-2,1.8500824E1,1.154746E1,4.0722575E-2,-6.321212E-2,2.1693863E1,-2.1474064E1,9.210729E-2,6.200356E-2,-6.279252E-2,-1.8387383E-2,-5.8592387E-2,5.7911552E-2,-1.5898889E-4,-5.4253172E-2,-3.5685714E-2,6.3460596E-2],"split_indices":[646,96,958,423,28,96,658,960,0,955,997,0,0,376,214,0,0,0,0,0,0,0,0,0,0],"split_type":[0,0,0,0,0,0,0,0,0,0,0,0,0,0,0,0,0,0,0,0,0,0,0,0,0],"sum_hessian":[2.4169812E3,1.1604855E3,1.2564958E3,5.441225E1,1.1060732E3,2.5109575E2,1.0054001E3,4.500781E1,9.404441E0,1.0783081E3,2.7765162E1,1.7282879E0,2.4936746E2,6.498873E0,9.989012E2,5.381027E0,3.962678E1,1.0470057E3,3.1302328E1,1.03486395E1,1.7416523E1,1.0044541E0,5.494419E0,1.2265698E0,9.976746E2],"tree_param":{"num_deleted":"0","num_feature":"1030","num_nodes":"25","size_leaf_vector":"0"}},{"base_weights":[-1.3156109E-1,-1.093994E0,7.21747E-1,8.4363437E-1,-1.1982275E0,-1.145993E0,1.2480165E0,-1.1343977E0,1.2262499E0,1.1411207E0,-1.2186356E0,-1.2407157E0,6.1616874E-1,1.254177E0,-8.965969E-1,1.2448937E0,1.7297877E-1,-2.319749E-1,1.3295107E0,-1.2325073E0,4.8760515E-1,-1.2506562E0,6.475207E-1,-1.0146801E0,1.1936643E0,-6.794655E-1,1.2570277E0],"categories":[],"categories_nodes":[],"categories_segments":[],"categories_sizes":[],"default_left":[1,1,1,1,1,1,1,0,1,1,1,1,1,1,0,0,0,0,0,0,0,0,0,0,0,0,0],"id":18,"left_children":[1,3,5,7,9,11,13,-1,15,17,19,21,23,25,-1,-1,-1,-1,-1,-1,-1,-1,-1,-1,-1,-1,-1],"loss_changes":[1.9302406E3,2.2408215E2,1.226071E3,4.450715E1,5.144922E1,4.6567352E1,1.3973022E1,0E0,7.3148346E-1,2.787714E0,2.5214966E1,5.703888E0,1.5023771E1,6.20166E0,0E0,0E0,0E0,0E0,0E0,0E0,0E0,0E0,0E0,0E0,0E0,0E0,0E0],"parents":[2147483647,0,0,1,1,2,2,3,3,4,4,5,5,6,6,8,8,9,9,10,10,11,11,12,12,13,13],"right_children":[2,4,6,8,10,12,14,-1,16,18,20,22,24,26,-1,-1,-1,-1,-1,-1,-1,-1,-1,-1,-1,-1,-1],"split_conditions":[1.8500824E1,-3.5800724E1,1.5119488E1,1.4645058E1,-3.852924E1,1.686721E1,5.6280813E0,-5.6719888E-2,2.327105E1,2.8982859E0,3.06819E0,3.999478E1,1.3134472E1,-4.65312E0,-4.4829845E-2,6.2244684E-2,8.6489385E-3,-1.1598745E-2,6.647553E-2,-6.162537E-2,2.4380257E-2,-6.253281E-2,3.2376036E-2,-5.073401E-2,5.9683215E-2,-3.3973273E-2,6.285139E-2],"split_indices":[955,117,855,107,938,31,984,0,479,392,1026,1,4,3,0,0,0,0,0,0,0,0,0,0,0,0,0],"split_type":[0,0,0,0,0,0,0,0,0,0,0,0,0,0,0,0,0,0,0,0,0,0,0,0,0,0,0],"sum_hessian":[2.3484028E3,1.1035001E3,1.2449027E3,5.596964E1,1.0475304E3,2.734052E2,9.714975E2,8.753137E0,4.7216503E1,8.58453E0,1.0389459E3,2.5973917E2,1.366603E1,9.6912885E2,2.3686445E0,4.6216503E1,1.0000013E0,1.0077934E0,7.576736E0,1.0308428E3,8.103102E0,2.5871484E2,1.0243312E0,3.3757808E0,1.0290249E1,1.077293E0,9.680516E2],"tree_param":{"num_deleted":"0","num_feature":"1030","num_nodes":"27","size_leaf_vector":"0"}},{"base_weights":[-1.2935546E-1,-1.0792284E0,7.066893E-1,6.936317E-1,-1.1887462E0,-1.1391785E0,1.2325879E0,-1.1601156E0,1.1585165E0,1.0432901E0,-1.2087827E0,-1.2233559E0,6.436078E-1,1.2379218E0,-8.401714E-1,-8.155427E-1,1.236959E0,1.274886E0,-3.2194427E-1,-1.2238984E0,5.235295E-1,-1.234945E0,6.860806E-1,-9.5390826E-1,1.1650766E0,-6.682298E-1,1.2408185E0],"categories":[],"categories_nodes":[],"categories_segments":[],"categories_sizes":[],"default_left":[1,1,1,1,1,1,1,0,1,1,1,1,1,1,0,0,0,0,0,0,0,0,0,0,0,0,0],"id":19,"left_children":[1,3,5,7,9,11,13,-1,15,17,19,21,23,25,-1,-1,-1,-1,-1,-1,-1,-1,-1,-1,-1,-1,-1],"loss_changes":[1.7829684E3,2.0488245E2,1.1606865E3,5.4583088E1,4.5545044E1,4.060385E1,1.1321167E1,0E0,8.734558E0,3.3656244E0,2.635083E1,6.4613647E0,1.1622799E1,5.9526367E0,0E0,0E0,0E0,0E0,0E0,0E0,0E0,0E0,0E0,0E0,0E0,0E0,0E0],"parents":[2147483647,0,0,1,1,2,2,3,3,4,4,5,5,6,6,8,8,9,9,10,10,11,11,12,12,13,13],"right_children":[2,4,6,8,10,12,14,-1,16,18,20,22,24,26,-1,-1,-1,-1,-1,-1,-1,-1,-1,-1,-1,-1,-1],"split_conditions":[1.8514908E1,-3.3871887E1,1.5119488E1,1.4652158E1,-3.852924E1,1.6181995E1,5.6280813E0,-5.800578E-2,3.8231766E1,2.465871E0,3.06819E0,1.8251015E1,1.0186468E1,-4.65312E0,-4.200857E-2,-4.0777136E-2,6.184795E-2,6.37443E-2,-1.6097214E-2,-6.1194923E-2,2.6176477E-2,-6.1747253E-2,3.430403E-2,-4.7695413E-2,5.8253832E-2,-3.341149E-2,6.2040925E-2],"split_indices":[955,14,855,4,938,134,984,0,1,74,1026,522,4,3,0,0,0,0,0,0,0,0,0,0,0,0,0],"split_type":[0,0,0,0,0,0,0,0,0,0,0,0,0,0,0,0,0,0,0,0,0,0,0,0,0,0,0],"sum_hessian":[2.243206E3,1.0499797E3,1.1932263E3,6.07781E1,9.8920166E2,2.6431894E2,9.2890735E2,1.188614E1,4.889196E1,8.346444E0,9.808552E2,2.52701E2,1.1617925E1,9.269248E2,1.9825215E0,1.5094283E0,4.7382534E1,7.1924996E0,1.1539448E0,9.726615E2,8.193755E0,2.5152762E2,1.1733887E0,2.6550198E0,8.962905E0,1.057942E0,9.258669E2],"tree_param":{"num_deleted":"0","num_feature":"1030","num_nodes":"27","size_leaf_vector":"0"}},{"base_weights":[-1.31743E-1,-1.062758E0,6.9812906E-1,7.28331E-1,-1.176654E0,-1.1223699E0,1.2179841E0,-1.0645764E0,1.1679806E0,-1.2078646E0,2.3129232E-1,-1.2122611E0,5.975619E-1,1.2242179E0,-8.666949E-1,-8.901495E-2,-1.1487459E0,-6.526125E-1,1.2222967E0,1.259278E0,-1.2144371E0,-1.114958E0,1.2979933E0,-1.2206099E0,3.1231555E-1,-9.6960634E-1,1.1534137E0,1.2266811E0,-4.6804467E-1],"categories":[],"categories_nodes":[],"categories_segments":[],"categories_sizes":[],"default_left":[1,1,1,1,1,1,1,1,1,1,1,1,1,1,0,0,0,0,0,0,0,0,0,0,0,0,0,0,0],"id":20,"left_children":[1,3,5,7,9,11,13,15,17,19,21,23,25,27,-1,-1,-1,-1,-1,-1,-1,-1,-1,-1,-1,-1,-1,-1,-1],"loss_changes":[1.6778123E3,2.0962146E2,1.0880668E3,4.9959755E1,4.257727E1,4.0238434E1,1.2674683E1,9.4006634E-1,5.7528687E0,1.6801636E1,3.2629814E1,3.4769287E0,1.2759899E1,4.290161E0,0E0,0E0,0E0,0E0,0E0,0E0,0E0,0E0,0E0,0E0,0E0,0E0,0E0,0E0,0E0],"parents":[2147483647,0,0,1,1,2,2,3,3,4,4,5,5,6,6,7,7,8,8,9,9,10,10,11,11,12,12,13,13],"right_children":[2,4,6,8,10,12,14,16,18,20,22,24,26,28,-1,-1,-1,-1,-1,-1,-1,-1,-1,-1,-1,-1,-1,-1,-1],"split_conditions":[1.8500824E1,-3.3871887E1,1.5119488E1,1.4316988E1,1.911668E1,1.686721E1,5.6280813E0,-3.356225E0,1.4419198E1,-4.078716E1,1.1716285E0,3.999147E1,1.3134472E1,7.96869E0,-4.333475E-2,-4.4507473E-3,-5.7437297E-2,-3.2630626E-2,6.1114836E-2,6.29639E-2,-6.0721856E-2,-5.5747904E-2,6.489967E-2,-6.1030496E-2,1.5615778E-2,-4.8480317E-2,5.7670683E-2,6.1334055E-2,-2.3402235E-2],"split_indices":[955,14,855,931,28,31,984,17,4,423,13,1,4,567,0,0,0,0,0,0,0,0,0,0,0,0,0,0,0],"split_type":[0,0,0,0,0,0,0,0,0,0,0,0,0,0,0,0,0,0,0,0,0,0,0,0,0,0,0,0,0],"sum_hessian":[2.169618E3,1.0223668E3,1.1472512E3,6.08031E1,9.615637E2,2.545776E2,8.926736E2,1.1693824E1,4.9109276E1,9.4084955E2,2.0714201E1,2.4221362E2,1.2363983E1,8.904237E2,2.2498844E0,1.092209E0,1.0601615E1,1.1035903E0,4.8005688E1,1.993357E0,9.3885614E2,9.137193E0,1.1577008E1,2.4109274E2,1.1208835E0,3.042264E0,9.321719E0,8.894042E2,1.0195227E0],"tree_param":{"num_deleted":"0","num_feature":"1030","num_nodes":"29","size_leaf_vector":"0"}},{"base_weights":[-1.322666E-1,-1.0311702E0,7.1524394E-1,6.578366E-1,-1.1313393E0,-1.1456168E0,1.2025578E0,-1.0653043E0,1.1787761E0,-1.2090168E0,-4.2385793E-1,9.511592E-1,-1.1835772E0,-4.838202E-1,1.2099512E0,-1.1387261E0,-8.8562354E-2,6.534118E-2,1.2028127E0,3.3049524E-1,-1.211481E0,-1.1957272E0,1.5800459E0,-1.2048677E0,8.064888E-1,4.2583847E-1,-8.7359136E-1],"categories":[],"categories_nodes":[],"categories_segments":[],"categories_sizes":[],"default_left":[1,1,1,1,1,1,1,1,1,1,1,0,1,1,0,0,0,0,0,0,0,0,0,0,0,0,0],"id":21,"left_children":[1,3,5,7,9,11,13,15,17,19,21,-1,23,25,-1,-1,-1,-1,-1,-1,-1,-1,-1,-1,-1,-1,-1],"loss_changes":[1.5947675E3,1.7260486E2,9.785357E2,5.287387E1,5.2206543E1,1.8965881E1,1.1238281E1,8.9412117E-1,1.1158218E0,3.6773682E0,1.5106717E2,0E0,1.0318298E1,1.947639E0,0E0,0E0,0E0,0E0,0E0,0E0,0E0,0E0,0E0,0E0,0E0,0E0,0E0],"parents":[2147483647,0,0,1,1,2,2,3,3,4,4,5,5,6,6,7,7,8,8,9,9,10,10,12,12,13,13],"right_children":[2,4,6,8,10,12,14,16,18,20,22,-1,24,26,-1,-1,-1,-1,-1,-1,-1,-1,-1,-1,-1,-1,-1],"split_conditions":[1.8850914E1,-3.3893456E1,1.4363501E1,1.5496386E1,4.883272E0,1.1685687E0,-2.2158405E1,-1.44349785E1,7.1920013E-1,-5.7088974E1,7.0487614E0,4.755796E-2,1.2029335E1,6.937419E-1,6.049756E-2,-5.6936305E-2,-4.428118E-3,3.267059E-3,6.0140636E-2,1.6524762E-2,-6.057405E-2,-5.978636E-2,7.90023E-2,-6.0243387E-2,4.0324442E-2,2.1291925E-2,-4.367957E-2],"split_indices":[543,14,443,313,554,630,555,8,914,405,646,0,339,55,0,0,0,0,0,0,0,0,0,0,0,0,0],"split_type":[0,0,0,0,0,0,0,0,0,0,0,0,0,0,0,0,0,0,0,0,0,0,0,0,0,0,0],"sum_hessian":[2.091369E3,1.0148071E3,1.0765618E3,5.6503464E1,9.583037E2,2.2313724E2,8.5342456E2,1.2874103E1,4.362936E1,8.628578E2,9.544589E1,3.5401073E0,2.1959712E2,3.4439194E0,8.4998065E2,1.1819768E1,1.0543354E0,1.0005289E0,4.262883E1,1.166168E0,8.6169165E2,6.919606E1,2.6249832E1,2.1766304E2,1.9340861E0,1.0052664E0,2.438653E0],"tree_param":{"num_deleted":"0","num_feature":"1030","num_nodes":"27","size_leaf_vector":"0"}},{"base_weights":[-1.2106845E-1,-1.0246794E0,7.051457E-1,-1.1223423E0,6.731269E-1,-1.1132367E0,1.1977788E0,4.9672714E-1,-1.1664945E0,-1.1256275E0,1.1762245E0,9.575093E-1,-1.1721729E0,1.1989847E0,1.5221913E-1,1.4236959E0,-1.0894171E0,-1.1755153E0,1.089409E0,-1.1933208E0,7.9188925E-1],"categories":[],"categories_nodes":[],"categories_segments":[],"categories_sizes":[],"default_left":[1,1,1,1,1,1,1,1,1,0,0,0,1,0,0,0,0,0,0,0,0],"id":22,"left_children":[1,3,5,7,9,11,13,15,17,-1,-1,-1,19,-1,-1,-1,-1,-1,-1,-1,-1],"loss_changes":[1.5084796E3,1.6076624E2,9.468936E2,6.583801E1,4.9391163E1,2.864621E1,8.652344E-1,3.821328E1,1.937085E1,0E0,0E0,0E0,1.0071899E1,0E0,0E0,0E0,0E0,0E0,0E0,0E0,0E0],"parents":[2147483647,0,0,1,1,2,2,3,3,4,4,5,5,6,6,7,7,8,8,12,12],"right_children":[2,4,6,8,10,12,14,16,18,-1,-1,-1,20,-1,-1,-1,-1,-1,-1,-1,-1],"split_conditions":[1.8735012E1,1.9000046E1,1.5119488E1,-5.557653E1,-2.0111513E0,1.1685687E0,4.934654E0,-2.496678E1,3.1010303E0,-5.6281377E-2,5.8811225E-2,4.7875464E-2,1.0080639E1,5.9949238E-2,7.6109567E-3,7.11848E-2,-5.4470856E-2,-5.8775764E-2,5.447045E-2,-5.9666038E-2,3.9594464E-2],"split_indices":[28,955,31,96,940,115,366,423,717,0,0,0,42,0,0,0,0,0,0,0,0],"split_type":[0,0,0,0,0,0,0,0,0,0,0,0,0,0,0,0,0,0,0,0,0],"sum_hessian":[2.0185624E3,9.640086E2,1.0545537E3,9.118927E2,5.211589E1,2.2452792E2,8.3002576E2,2.3935135E1,8.879576E2,1.1120112E1,4.099578E1,5.7915964E0,2.1873633E2,8.28923E2,1.1027879E0,1.5171233E1,8.763902E0,8.84898E2,3.0595675E0,2.1679443E2,1.9418888E0],"tree_param":{"num_deleted":"0","num_feature":"1030","num_nodes":"21","size_leaf_vector":"0"}},{"base_weights":[-1.295916E-1,-1.0069642E0,6.960075E-1,6.9881445E-1,-1.1153903E0,-1.1805685E0,1.1630176E0,-1.0978824E0,1.1170373E0,-1.1886058E0,-4.5327437E-1,-9.351821E-1,1.1827621E0,-7.253706E-1,1.1833576E0,-1.1712335E0,1.5632329E0,-1.0285215E0,-1.4634036E-1,-3.7220067E-1,1.1855432E0],"categories":[],"categories_nodes":[],"categories_segments":[],"categories_sizes":[],"default_left":[1,1,1,1,1,0,1,0,1,0,1,1,1,0,0,0,0,0,0,0,0],"id":23,"left_children":[1,3,5,7,9,-1,11,-1,13,-1,15,17,19,-1,-1,-1,-1,-1,-1,-1,-1],"loss_changes":[1.3985052E3,1.7388123E2,8.731801E2,4.3719856E1,4.2139526E1,0E0,3.4126343E1,0E0,6.5241013E0,0E0,1.310794E2,4.3771362E-1,3.8579102E0,0E0,0E0,0E0,0E0,0E0,0E0,0E0,0E0],"parents":[2147483647,0,0,1,1,2,2,3,3,4,4,6,6,8,8,10,10,11,11,12,12],"right_children":[2,4,6,8,10,-1,12,-1,14,-1,16,18,20,-1,-1,-1,-1,-1,-1,-1,-1],"split_conditions":[1.8850914E1,-3.3893456E1,4.2791758E0,1.4777021E1,4.98917E0,-5.9028424E-2,-2.2251945E1,-5.489412E-2,1.3893343E1,-5.943029E-2,8.348748E0,2.5173695E1,-2.050638E1,-3.626853E-2,5.916788E-2,-5.856168E-2,7.816165E-2,-5.142608E-2,-7.3170178E-3,-1.8610034E-2,5.927716E-2],"split_indices":[749,14,649,313,760,0,761,0,931,0,852,550,523,0,0,0,0,0,0,0,0],"split_type":[0,0,0,0,0,0,0,0,0,0,0,0,0,0,0,0,0,0,0,0,0],"sum_hessian":[1.9287147E3,9.349326E2,9.9378217E2,5.5550926E1,8.7938165E2,1.9772809E2,7.960541E2,1.0182314E1,4.536861E1,7.911075E2,8.82742E1,6.9889674E0,7.890651E2,1.2310841E0,4.4137527E1,6.540612E1,2.286808E1,5.9778075E0,1.01116E0,1.1715841E0,7.878935E2],"tree_param":{"num_deleted":"0","num_feature":"1030","num_nodes":"21","size_leaf_vector":"0"}},{"base_weights":[-1.2240172E-1,-9.951756E-1,6.9416964E-1,6.5882266E-1,-1.0955873E0,-1.1531543E0,1.1580096E0,-1.0189865E0,1.1426494E0,-1.1742013E0,-4.0557522E-1,6.864934E-1,-1.16971E0,-8.4734917E-1,1.1725734E0,-1.0927098E0,-1.4174025E-1,1.1672539E0,9.568059E-2,1.6419081E-1,-1.1762656E0,-1.1599901E0,1.5149252E0,-1.4786325E-1,-9.6051854E-1,-3.7436152E-1,1.1754876E0],"categories":[],"categories_nodes":[],"categories_segments":[],"categories_sizes":[],"default_left":[1,1,1,1,1,1,1,1,1,1,1,0,0,1,1,0,0,0,0,0,0,0,0,0,0,0,0],"id":24,"left_children":[1,3,5,7,9,11,13,15,17,19,21,-1,-1,23,25,-1,-1,-1,-1,-1,-1,-1,-1,-1,-1,-1,-1],"loss_changes":[1.3261182E3,1.5008838E2,8.2513354E2,4.3456207E1,4.5537476E1,6.6949463E0,2.3451538E1,6.334572E-1,9.4213104E-1,2.2956543E0,1.2967203E2,0E0,0E0,3.428135E-1,3.8833008E0,0E0,0E0,0E0,0E0,0E0,0E0,0E0,0E0,0E0,0E0,0E0,0E0],"parents":[2147483647,0,0,1,1,2,2,3,3,4,4,5,5,6,6,7,7,8,8,9,9,10,10,13,13,14,14],"right_children":[2,4,6,8,10,12,14,16,18,20,22,-1,-1,24,26,-1,-1,-1,-1,-1,-1,-1,-1,-1,-1,-1,-1],"split_conditions":[1.8850914E1,-3.3893456E1,1.1332574E1,1.5496386E1,4.883272E0,-1.1481024E1,-2.2251945E1,3.2594275E0,4.0230007E0,-1.8962463E1,7.0487614E0,3.4324672E-2,-5.8485504E-2,2.485668E0,-2.050638E1,-5.463549E-2,-7.0870123E-3,5.8362693E-2,4.7840294E-3,8.2095405E-3,-5.881328E-2,-5.7999503E-2,7.574626E-2,-7.3931627E-3,-4.802593E-2,-1.8718077E-2,5.8774382E-2],"split_indices":[543,14,855,313,554,42,555,27,118,514,646,0,0,1001,317,0,0,0,0,0,0,0,0,0,0,0,0],"split_type":[0,0,0,0,0,0,0,0,0,0,0,0,0,0,0,0,0,0,0,0,0,0,0,0,0,0,0],"sum_hessian":[1.8587733E3,8.983613E2,9.60412E2,5.1098396E1,8.4726294E2,1.9245203E2,7.6795996E2,1.1189495E1,3.99089E1,7.5997614E2,8.728683E1,1.355596E0,1.9109644E2,5.124764E0,7.628352E2,1.0095464E1,1.0940313E0,3.8880302E1,1.0285975E0,1.0493923E0,7.5892676E2,6.2953358E1,2.4333471E1,1.0348778E0,4.089886E0,1.1946613E0,7.6164056E2],"tree_param":{"num_deleted":"0","num_feature":"1030","num_nodes":"27","size_leaf_vector":"0"}},{"base_weights":[-1.2286617E-1,-1.0045764E0,6.7019224E-1,6.477955E-1,-1.1112535E0,-1.0685273E0,1.163107E0,-1.0783429E0,1.0905646E0,-1.1419642E0,2.7562103E-1,-1.1548575E0,4.9265468E-1,1.1665821E0,-6.1639506E-1,-7.053923E-1,1.1610538E0,-1.1516689E0,9.9593234E-1,-1.0274594E0,1.1829189E0,-1.1615986E0,3.26374E-2,-9.0987486E-1,1.0684515E0,6.66542E-2,1.1680532E0],"categories":[],"categories_nodes":[],"categories_segments":[],"categories_sizes":[],"default_left":[1,1,1,1,1,1,1,0,1,1,1,1,1,1,0,0,0,0,0,0,0,0,0,0,0,0,0],"id":25,"left_children":[1,3,5,7,9,11,13,-1,15,17,19,21,23,25,-1,-1,-1,-1,-1,-1,-1,-1,-1,-1,-1,-1,-1],"loss_changes":[1.240949E3,1.4884314E2,8.0206934E2,4.06073E1,3.3950684E1,2.8455688E1,5.223938E0,0E0,6.080002E0,1.7181091E1,2.2395113E1,1.6097717E0,1.0294061E1,1.0991821E0,0E0,0E0,0E0,0E0,0E0,0E0,0E0,0E0,0E0,0E0,0E0,0E0,0E0],"parents":[2147483647,0,0,1,1,2,2,3,3,4,4,5,5,6,6,8,8,9,9,10,10,11,11,12,12,13,13],"right_children":[2,4,6,8,10,12,14,-1,16,18,20,22,24,26,-1,-1,-1,-1,-1,-1,-1,-1,-1,-1,-1,-1,-1],"split_conditions":[1.8541065E1,-3.3871887E1,1.5119488E1,1.473262E1,1.911668E1,1.686721E1,5.6280813E0,-5.3917147E-2,1.3893343E1,3.1010303E0,1.1716285E0,1.8126972E1,1.3134472E1,1.435487E1,-3.0819753E-2,-3.5269614E-2,5.805269E-2,-5.7583448E-2,4.979662E-2,-5.137297E-2,5.9145946E-2,-5.807993E-2,1.6318699E-3,-4.5493744E-2,5.3422578E-2,3.33271E-3,5.8402658E-2],"split_indices":[955,14,855,313,28,31,984,0,931,820,13,316,4,210,0,0,0,0,0,0,0,0,0,0,0,0,0],"split_type":[0,0,0,0,0,0,0,0,0,0,0,0,0,0,0,0,0,0,0,0,0,0,0,0,0,0,0],"sum_hessian":[1.7727285E3,8.3931934E2,9.334091E2,5.0592693E1,7.887266E2,2.0590987E2,7.2749927E2,1.0035147E1,4.0557545E1,7.718124E2,1.6914263E1,1.9536674E2,1.0543124E1,7.264251E2,1.0741291E0,1.1915513E0,3.9365993E1,7.687839E2,3.028497E0,6.888464E0,1.0025798E1,1.9428568E2,1.0810782E0,2.8997335E0,7.6433907E0,1.0321057E0,7.25393E2],"tree_param":{"num_deleted":"0","num_feature":"1030","num_nodes":"27","size_leaf_vector":"0"}},{"base_weights":[-1.22461274E-1,-9.744665E-1,6.7645854E-1,2.7268496E-1,-1.1033968E0,-1.1501895E0,1.1340684E0,1.2684801E0,-1.101753E0,-1.1313981E0,2.8557655E-1,-9.0570617E-1,1.151996E0,1.1296457E0,2.107013E0,-2.0282494E-1,-1.1247941E0,-1.1471422E0,3.9038503E-1,-9.952145E-1,1.0457623E0,-6.0247785E-1,1.155555E0],"categories":[],"categories_nodes":[],"categories_segments":[],"categories_sizes":[],"default_left":[1,1,1,1,1,0,1,1,1,1,1,0,1,0,0,0,0,0,0,0,0,0,0],"id":26,"left_children":[1,3,5,7,9,-1,11,13,15,17,19,-1,21,-1,-1,-1,-1,-1,-1,-1,-1,-1,-1],"loss_changes":[1.1655266E3,1.3352899E2,7.400355E2,1.0874466E2,2.953656E1,0E0,2.6905212E1,2.9687042E0,4.6544647E-1,1.8093323E1,1.627006E1,0E0,5.076477E0,0E0,0E0,0E0,0E0,0E0,0E0,0E0,0E0,0E0,0E0],"parents":[2147483647,0,0,1,1,2,2,3,3,4,4,6,6,7,7,8,8,9,9,10,10,12,12],"right_children":[2,4,6,8,10,-1,12,14,16,18,20,-1,22,-1,-1,-1,-1,-1,-1,-1,-1,-1,-1],"split_conditions":[1.8850914E1,-5.4598583E1,4.2791758E0,-2.1112053E1,1.9680471E1,-5.750948E-2,1.4319284E1,1.1097229E1,-1.9080103E1,3.0457106E0,-3.0611267E0,-4.528531E-2,1.4289627E1,5.6482285E-2,1.0535065E-1,-1.0141247E-2,-5.6239706E-2,-5.735711E-2,1.9519253E-2,-4.9760725E-2,5.2288115E-2,-3.0123893E-2,5.777775E-2],"split_indices":[131,199,31,11,852,0,931,218,11,923,734,0,4,0,0,0,0,0,0,0,0,0,0],"split_type":[0,0,0,0,0,0,0,0,0,0,0,0,0,0,0,0,0,0,0,0,0,0,0],"sum_hessian":[1.7103193E3,8.2755566E2,8.827636E2,7.743234E1,7.5012335E2,1.7654257E2,7.06221E2,4.4945755E1,3.248659E1,7.354817E2,1.4641627E1,5.721461E0,7.004996E2,4.0574993E1,4.37076E0,1.0568608E0,3.142973E1,7.281941E2,7.2876124E0,5.338291E0,9.303336E0,1.0774263E0,6.994221E2],"tree_param":{"num_deleted":"0","num_feature":"1030","num_nodes":"23","size_leaf_vector":"0"}},{"base_weights":[-1.1816292E-1,-9.918971E-1,6.597098E-1,6.63154E-1,-1.0964683E0,-1.0560488E0,1.1403099E0,-1.0517677E0,1.0717188E0,9.074797E-1,-1.114746E0,9.7595304E-1,-1.1188527E0,1.1467279E0,-7.660013E-1,-6.3710934E-1,1.1424987E0,1.1095577E0,-1.4776863E-1,-1.1281359E0,6.988653E-1,-4.188918E-2,-1.1438292E0,-6.32966E-1,1.1505756E0],"categories":[],"categories_nodes":[],"categories_segments":[],"categories_sizes":[],"default_left":[1,1,1,1,1,1,1,0,1,1,1,0,1,1,0,0,0,0,0,0,0,0,0,0,0],"id":27,"left_children":[1,3,5,7,9,11,13,-1,15,17,19,-1,21,23,-1,-1,-1,-1,-1,-1,-1,-1,-1,-1,-1],"loss_changes":[1.1183367E3,1.3484283E2,7.190692E2,3.3830475E1,2.7721802E1,2.5468735E1,9.204773E0,0E0,5.3470116E0,1.6870198E0,1.8348389E1,0E0,4.948639E0,5.3756104E0,0E0,0E0,0E0,0E0,0E0,0E0,0E0,0E0,0E0,0E0,0E0],"parents":[2147483647,0,0,1,1,2,2,3,3,4,4,5,5,6,6,8,8,9,9,10,10,12,12,13,13],"right_children":[2,4,6,8,10,12,14,-1,16,18,20,-1,22,24,-1,-1,-1,-1,-1,-1,-1,-1,-1,-1,-1],"split_conditions":[1.8500824E1,-3.3871887E1,1.5119488E1,-2.3305954E1,-3.852924E1,-1.8291668E1,5.1168466E0,-5.2588385E-2,-6.485764E1,5.837221E-1,3.0817924E0,4.8797652E-2,-1.3769234E1,1.4109248E1,-3.8300063E-2,-3.1855468E-2,5.712494E-2,5.5477887E-2,-7.3884316E-3,-5.6406796E-2,3.4943264E-2,-2.094459E-3,-5.719146E-2,-3.16483E-2,5.7528783E-2],"split_indices":[955,14,958,8,938,102,881,0,41,120,923,0,938,416,0,0,0,0,0,0,0,0,0,0,0],"split_type":[0,0,0,0,0,0,0,0,0,0,0,0,0,0,0,0,0,0,0,0,0,0,0,0,0],"sum_hessian":[1.643487E3,7.739188E2,8.695682E2,4.5675182E1,7.2824365E2,1.9001411E2,6.795541E2,8.485134E0,3.719005E1,6.142397E0,7.2210126E2,5.2608647E0,1.8475325E2,6.77671E2,1.8830475E0,1.1609175E0,3.602913E1,5.111994E0,1.0304029E0,7.171842E2,4.9170346E0,4.2482853E0,1.8050496E2,1.1092464E0,6.7656177E2],"tree_param":{"num_deleted":"0","num_feature":"1030","num_nodes":"25","size_leaf_vector":"0"}},{"base_weights":[-1.2311183E-1,-9.832026E-1,6.459371E-1,6.550296E-1,-1.0871246E0,-1.0494114E0,1.13223E0,-9.595876E-1,1.0787066E0,-1.1183046E0,2.7723524E-1,9.662634E-1,-1.1124603E0,1.1383176E0,-7.35598E-1,-1.4705616E-1,-1.0369518E0,-3.5232687E-1,1.1314985E0,-1.1268561E0,9.167822E-1,-9.9146104E-1,1.1522335E0,-1.132967E0,1.9403294E-1,-6.2334347E-1,1.1422561E0],"categories":[],"categories_nodes":[],"categories_segments":[],"categories_sizes":[],"default_left":[1,1,1,1,1,1,1,1,1,1,1,0,1,1,0,0,0,0,0,0,0,0,0,0,0,0,0],"id":28,"left_children":[1,3,5,7,9,11,13,15,17,19,21,-1,23,25,-1,-1,-1,-1,-1,-1,-1,-1,-1,-1,-1,-1,-1],"loss_changes":[1.0419845E3,1.2730469E2,6.869233E2,3.1804443E1,3.007135E1,2.470285E1,8.1922E0,4.684868E-1,3.125965E0,1.2939575E1,1.9383873E1,0E0,5.062378E0,5.1882324E0,0E0,0E0,0E0,0E0,0E0,0E0,0E0,0E0,0E0,0E0,0E0,0E0,0E0],"parents":[2147483647,0,0,1,1,2,2,3,3,4,4,5,5,6,6,7,7,8,8,9,9,10,10,12,12,13,13],"right_children":[2,4,6,8,10,12,14,16,18,20,22,-1,24,26,-1,-1,-1,-1,-1,-1,-1,-1,-1,-1,-1,-1,-1],"split_conditions":[1.8500824E1,-3.3871887E1,1.5119488E1,1.4316988E1,1.911668E1,-1.8291668E1,5.1168466E0,-5.4370598E1,1.6022823E1,3.1013205E0,1.1716285E0,4.831317E-2,2.3029755E1,1.4109248E1,-3.6779903E-2,-7.352808E-3,-5.184759E-2,-1.7616345E-2,5.6574922E-2,-5.6342807E-2,4.5839112E-2,-4.9573053E-2,5.7611674E-2,-5.664835E-2,9.701647E-3,-3.1167174E-2,5.711281E-2],"split_indices":[955,14,958,931,28,102,881,302,7,923,13,0,237,416,0,0,0,0,0,0,0,0,0,0,0,0,0],"split_type":[0,0,0,0,0,0,0,0,0,0,0,0,0,0,0,0,0,0,0,0,0,0,0,0,0,0,0],"sum_hessian":[1.5733387E3,7.425762E2,8.307626E2,4.3979393E1,6.9859674E2,1.849208E2,6.458418E2,8.878575E0,3.510082E1,6.831646E2,1.54321785E1,5.1742454E0,1.7974657E2,6.4413306E2,1.7087474E0,1.0240579E0,7.854517E0,1.0469557E0,3.405386E1,6.8075037E2,2.4142292E0,6.244671E0,9.187508E0,1.7709962E2,2.6469388E0,1.0860771E0,6.4304694E2],"tree_param":{"num_deleted":"0","num_feature":"1030","num_nodes":"27","size_leaf_vector":"0"}},{"base_weights":[-1.14827015E-1,-9.4773513E-1,6.633026E-1,2.4425833E-1,-1.0816449E0,-1.0408936E0,1.1317146E0,1.2290105E0,-1.0648801E0,-1.1084753E0,2.699709E-1,9.4492674E-1,-1.1041656E0,1.2858019E0,-4.829934E-1,-1.1007031E0,4.7597606E-3,-1.1210225E0,9.677142E-1,-9.4401383E-1,1.006889E0,-1.125851E0,6.9342333E-1],"categories":[],"categories_nodes":[],"categories_segments":[],"categories_sizes":[],"default_left":[1,1,1,1,1,1,0,1,1,1,1,0,1,0,0,0,0,0,0,0,0,0,0],"id":29,"left_children":[1,3,5,7,9,11,-1,13,15,17,19,-1,21,-1,-1,-1,-1,-1,-1,-1,-1,-1,-1],"loss_changes":[9.765303E2,1.1641852E2,6.23083E2,9.710672E1,2.4030151E1,2.2213272E1,0E0,4.789467E0,1.2481194E0,1.7805054E1,1.3064605E1,0E0,7.1637573E0,0E0,0E0,0E0,0E0,0E0,0E0,0E0,0E0,0E0,0E0],"parents":[2147483647,0,0,1,1,2,2,3,3,4,4,5,5,7,7,8,8,9,9,10,10,12,12],"right_children":[2,4,6,8,10,12,-1,14,16,18,20,-1,22,-1,-1,-1,-1,-1,-1,-1,-1,-1,-1],"split_conditions":[1.8850914E1,-5.4472473E1,1.5099279E1,-2.2559212E1,1.9675297E1,1.1685687E0,5.658573E-2,7.251116E0,-2.8410683E0,3.1010303E0,-3.0611267E0,4.7246337E-2,1.2082006E1,6.42901E-2,-2.414967E-2,-5.5035155E-2,2.3798803E-4,-5.6051124E-2,4.838571E-2,-4.720069E-2,5.034445E-2,-5.6292553E-2,3.467117E-2],"split_indices":[28,96,31,11,749,115,0,670,171,820,631,0,30,0,0,0,0,0,0,0,0,0,0],"split_type":[0,0,0,0,0,0,0,0,0,0,0,0,0,0,0,0,0,0,0,0,0,0,0],"sum_hessian":[1.5047644E3,7.266944E2,7.7806995E2,7.33094E1,6.53385E2,1.6748753E2,6.105824E2,4.187309E1,3.1436312E1,6.4084375E2,1.2541234E1,4.741424E0,1.6274611E2,4.0769608E1,1.1034801E0,3.0389507E1,1.0468041E0,6.374515E2,3.3922951E0,4.6310697E0,7.910165E0,1.6117545E2,1.5706742E0],"tree_param":{"num_deleted":"0","num_feature":"1030","num_nodes":"23","size_leaf_vector":"0"}},{"base_weights":[-1.191936E-1,-9.4717115E-1,6.62062E-1,6.626053E-1,-1.0492436E0,-1.094488E0,1.1074431E0,-8.809652E-1,1.0941621E0,-1.1241939E0,-3.9503127E-1,6.8764377E-1,-1.1171762E0,-7.606575E-1,1.120805E0,-1.0162542E0,1.1454834E-1,1.1150982E0,2.1348418E-1,-1.1257054E0,-2.743294E-1,-1.1044927E0,1.4401537E0,-2.7548054E-1,1.123805E0],"categories":[],"categories_nodes":[],"categories_segments":[],"categories_sizes":[],"default_left":[1,1,1,1,1,1,1,1,1,1,1,0,0,0,1,0,0,0,0,0,0,0,0,0,0],"id":30,"left_children":[1,3,5,7,9,11,13,15,17,19,21,-1,-1,-1,23,-1,-1,-1,-1,-1,-1,-1,-1,-1,-1],"loss_changes":[9.349511E2,1.15984436E2,5.830763E2,2.9241274E1,3.1927368E1,6.871231E0,1.5674988E1,1.4402056E0,3.8183594E-1,4.5141602E-1,9.195219E1,0E0,0E0,0E0,2.7809448E0,0E0,0E0,0E0,0E0,0E0,0E0,0E0,0E0,0E0,0E0],"parents":[2147483647,0,0,1,1,2,2,3,3,4,4,5,5,6,6,7,7,8,8,9,9,10,10,14,14],"right_children":[2,4,6,8,10,12,14,16,18,20,22,-1,-1,-1,24,-1,-1,-1,-1,-1,-1,-1,-1,-1,-1],"split_conditions":[1.8850914E1,-3.3893456E1,1.1735571E1,1.5496386E1,4.871553E0,-5.498635E1,-2.2251945E1,1.992823E0,7.4368515E0,5.0982304E0,7.0487614E0,3.438219E-2,-5.585881E-2,-3.8032874E-2,-2.050638E1,-5.081271E-2,5.7274173E-3,5.575491E-2,1.0674209E-2,-5.628527E-2,-1.37164695E-2,-5.5224635E-2,7.2007686E-2,-1.3774027E-2,5.6190252E-2],"split_indices":[646,14,958,313,657,96,658,1003,312,139,749,0,0,0,832,0,0,0,0,0,0,0,0,0,0],"split_type":[0,0,0,0,0,0,0,0,0,0,0,0,0,0,0,0,0,0,0,0,0,0,0,0,0],"sum_hessian":[1.4433945E3,7.006406E2,7.427539E2,4.1449673E1,6.59191E2,1.4994087E2,5.9281305E2,8.829042E0,3.262063E1,5.9078845E2,6.840249E1,1.5164486E0,1.4842442E2,3.8129163E0,5.890001E2,7.7543955E0,1.0746467E0,3.1603157E1,1.0174725E0,5.894156E2,1.3728667E0,4.9618645E1,1.878384E1,1.0680225E0,5.8793207E2],"tree_param":{"num_deleted":"0","num_feature":"1030","num_nodes":"25","size_leaf_vector":"0"}},{"base_weights":[-1.19633056E-1,-9.6331966E-1,6.378789E-1,5.877986E-1,-1.0642715E0,-1.0276277E0,1.111339E0,-1.0114279E0,1.019172E0,9.448096E-1,-1.0833335E0,8.8282245E-1,-1.0874872E0,1.1181916E0,-7.158622E-1,-6.578614E-1,1.1023157E0,1.0533255E0,1.8622893E-1,-1.0995948E0,4.4710156E-1,-1.1127565E0,7.554138E-1,-2.7907873E-2,1.1202915E0],"categories":[],"categories_nodes":[],"categories_segments":[],"categories_sizes":[],"default_left":[1,1,1,1,1,1,1,0,1,1,1,0,1,1,0,0,0,0,0,0,0,0,0,0,0],"id":31,"left_children":[1,3,5,7,9,11,13,-1,15,17,19,-1,21,23,-1,-1,-1,-1,-1,-1,-1,-1,-1,-1,-1],"loss_changes":[8.816963E2,1.02816956E2,5.744275E2,2.8986095E1,2.4503174E1,1.9422485E1,7.8945923E0,0E0,5.2445946E0,3.2214832E-1,1.5617676E1,0E0,8.15126E0,1.390625E0,0E0,0E0,0E0,0E0,0E0,0E0,0E0,0E0,0E0,0E0,0E0],"parents":[2147483647,0,0,1,1,2,2,3,3,4,4,5,5,6,6,8,8,9,9,10,10,12,12,13,13],"right_children":[2,4,6,8,10,12,14,-1,16,18,20,-1,22,24,-1,-1,-1,-1,-1,-1,-1,-1,-1,-1,-1],"split_conditions":[1.8500824E1,-3.3871887E1,1.5119488E1,1.473262E1,-3.852924E1,1.1685687E0,5.116618E0,-5.0571393E-2,1.3893343E1,2.3800473E0,3.06819E0,4.4141125E-2,1.0150442E1,1.0094056E1,-3.579311E-2,-3.2893073E-2,5.5115785E-2,5.2666277E-2,9.311447E-3,-5.497974E-2,2.2355078E-2,-5.5637825E-2,3.777069E-2,-1.3953936E-3,5.6014575E-2],"split_indices":[852,14,752,313,938,939,984,0,931,383,923,0,763,791,0,0,0,0,0,0,0,0,0,0,0],"split_type":[0,0,0,0,0,0,0,0,0,0,0,0,0,0,0,0,0,0,0,0,0,0,0,0,0],"sum_hessian":[1.3776234E3,6.516121E2,7.260113E2,3.95229E1,6.1208923E2,1.6044345E2,5.655678E2,8.110445E0,3.1412455E1,5.29642E0,6.067928E2,4.456713E0,1.5598674E2,5.6384125E2,1.7265762E0,1.1572878E0,3.0255167E1,4.2936597E0,1.0027608E0,6.006918E2,6.1010375E0,1.5426767E2,1.7190716E0,1.008679E0,5.628326E2],"tree_param":{"num_deleted":"0","num_feature":"1030","num_nodes":"25","size_leaf_vector":"0"}},{"base_weights":[-1.1357492E-1,-9.5853937E-1,6.377666E-1,5.887098E-1,-1.0571496E0,-1.0101353E0,1.1051078E0,-9.572043E-1,1.0338364E0,8.8092905E-1,-1.0775862E0,-1.095021E0,5.18116E-1,1.1103137E0,-6.3572156E-1,-3.7256554E-1,1.0958133E0,-7.187833E-2,1.0627637E0,-1.0933969E0,3.7204868E-1,-1.1055076E0,1.9095427E-1,-7.6573175E-1,9.874254E-1,1.1129376E0,-1.6032277E-1],"categories":[],"categories_nodes":[],"categories_segments":[],"categories_sizes":[],"default_left":[1,1,1,1,1,1,1,0,1,1,1,1,1,1,0,0,0,0,0,0,0,0,0,0,0,0,0],"id":32,"left_children":[1,3,5,7,9,11,13,-1,15,17,19,21,23,25,-1,-1,-1,-1,-1,-1,-1,-1,-1,-1,-1,-1,-1],"loss_changes":[8.42298E2,9.5892395E1,5.4203723E2,2.717537E1,2.4213257E1,2.0766388E1,5.6691895E0,0E0,3.0255432E0,1.2335782E0,1.3738892E1,2.2046967E0,6.1018133E0,2.000122E0,0E0,0E0,0E0,0E0,0E0,0E0,0E0,0E0,0E0,0E0,0E0,0E0,0E0],"parents":[2147483647,0,0,1,1,2,2,3,3,4,4,5,5,6,6,8,8,9,9,10,10,11,11,12,12,13,13],"right_children":[2,4,6,8,10,12,14,-1,16,18,20,22,24,26,-1,-1,-1,-1,-1,-1,-1,-1,-1,-1,-1,-1,-1],"split_conditions":[1.8500824E1,-3.3871887E1,1.5119488E1,1.4316988E1,-3.852924E1,1.686721E1,5.6280813E0,-4.7860216E-2,-2.2028154E1,3.9567238E1,3.06819E0,1.8143108E1,1.3134472E1,7.770379E0,-3.178608E-2,-1.8628277E-2,5.4790664E-2,-3.5939165E-3,5.3138185E-2,-5.4669846E-2,1.8602435E-2,-5.527538E-2,9.547713E-3,-3.828659E-2,4.937127E-2,5.5646878E-2,-8.016138E-3],"split_indices":[955,14,855,931,938,31,984,0,8,207,1026,7,4,52,0,0,0,0,0,0,0,0,0,0,0,0,0],"split_type":[0,0,0,0,0,0,0,0,0,0,0,0,0,0,0,0,0,0,0,0,0,0,0,0,0,0,0],"sum_hessian":[1.3247896E3,6.234157E2,7.0137384E2,3.7053665E1,5.8636206E2,1.5470471E2,5.466691E2,8.026704E0,2.902696E1,5.679167E0,5.806829E2,1.4683249E2,7.8722267E0,5.454003E2,1.2688249E0,1.0136431E0,2.8013317E1,1.0070361E0,4.6721306E0,5.74661E2,6.0218697E0,1.4578401E2,1.0484815E0,1.9382676E0,5.933959E0,5.444002E2,1.000091E0],"tree_param":{"num_deleted":"0","num_feature":"1030","num_nodes":"27","size_leaf_vector":"0"}},{"base_weights":[-1.21741E-1,-9.245807E-1,6.450244E-1,1.62404E-1,-1.0618249E0,-1.0974745E0,1.0825075E0,-1.077658E0,1.144954E0,-1.0936381E0,1.9013411E-1,-8.3686924E-1,1.1022422E0,1.2227468E0,-4.550411E-1,-1.101868E0,8.368339E-1,-9.5024943E-1,9.9289745E-1,1.1053307E0,-1.5257865E-1],"categories":[],"categories_nodes":[],"categories_segments":[],"categories_sizes":[],"default_left":[1,1,1,1,1,0,1,0,1,1,1,0,1,0,0,0,0,0,0,0,0],"id":33,"left_children":[1,3,5,7,9,-1,11,-1,13,15,17,-1,19,-1,-1,-1,-1,-1,-1,-1,-1],"loss_changes":[7.8416815E2,9.299719E1,4.9795456E2,8.7282265E1,2.2217346E1,0E0,2.0671692E1,0E0,5.521122E0,9.486389E0,1.4259631E1,0E0,2.1704102E0,0E0,0E0,0E0,0E0,0E0,0E0,0E0,0E0],"parents":[2147483647,0,0,1,1,2,2,3,3,4,4,6,6,8,8,9,9,10,10,12,12],"right_children":[2,4,6,8,10,-1,12,-1,14,16,18,-1,20,-1,-1,-1,-1,-1,-1,-1,-1],"split_conditions":[1.8850914E1,-2.853545E1,3.9568868E0,5.916076E-1,1.9162514E1,-5.4873724E-2,1.4319345E1,-5.3882904E-2,7.818389E0,3.0990744E0,-2.002344E0,-4.1843463E-2,4.934654E0,6.1137345E-2,-2.2752056E-2,-5.5093404E-2,4.1841697E-2,-4.751247E-2,4.9644873E-2,5.5266537E-2,-7.6289326E-3],"split_indices":[28,11,31,80,955,0,931,0,106,717,940,0,675,0,0,0,0,0,0,0,0],"split_type":[0,0,0,0,0,0,0,0,0,0,0,0,0,0,0,0,0,0,0,0,0],"sum_hessian":[1.2718799E3,6.212236E2,6.506563E2,6.9622765E1,5.516008E2,1.3027223E2,5.203841E2,3.073534E1,3.8887424E1,5.3805493E2,1.3545866E1,4.874672E0,5.155094E2,3.7309204E1,1.5782199E0,5.3619824E2,1.8566927E0,5.520241E0,8.025625E0,5.1436255E2,1.1468359E0],"tree_param":{"num_deleted":"0","num_feature":"1030","num_nodes":"21","size_leaf_vector":"0"}},{"base_weights":[-1.1510622E-1,-9.455981E-1,6.285631E-1,5.69948E-1,-1.042951E0,-9.994302E-1,1.0911939E0,-9.7722983E-1,9.849125E-1,-1.0760958E0,3.0819216E-1,9.0617347E-1,-1.0664946E0,1.0973457E0,-6.5276116E-1,-6.3615805E-1,1.0767856E0,3.0491498E-1,-1.0900935E0,-9.19687E-1,1.0895146E0,5.0165623E-2,-1.0937817E0,-4.118403E-1,1.1014906E0],"categories":[],"categories_nodes":[],"categories_segments":[],"categories_sizes":[],"default_left":[1,1,1,1,1,1,1,0,1,1,1,0,1,1,0,0,0,0,0,0,0,0,0,0,0],"id":34,"left_children":[1,3,5,7,9,11,13,-1,15,17,19,-1,21,23,-1,-1,-1,-1,-1,-1,-1,-1,-1,-1,-1],"loss_changes":[7.4970197E2,8.519623E1,4.834933E2,2.3598194E1,2.4476685E1,1.9146774E1,6.072571E0,0E0,4.8995857E0,1.0509338E1,1.4132461E1,0E0,4.25618E0,3.5679321E0,0E0,0E0,0E0,0E0,0E0,0E0,0E0,0E0,0E0,0E0,0E0],"parents":[2147483647,0,0,1,1,2,2,3,3,4,4,5,5,6,6,8,8,9,9,10,10,12,12,13,13],"right_children":[2,4,6,8,10,12,14,-1,16,18,20,-1,22,24,-1,-1,-1,-1,-1,-1,-1,-1,-1,-1,-1],"split_conditions":[1.8500824E1,-3.3871887E1,1.5119488E1,1.4652158E1,1.911668E1,-1.8291668E1,5.1168466E0,-4.8861492E-2,3.8231766E1,-5.5797752E1,1.1716285E0,4.5308676E-2,-1.3769234E1,1.4348344E1,-3.2638058E-2,-3.1807903E-2,5.3839277E-2,1.524575E-2,-5.4504674E-2,-4.598435E-2,5.4475732E-2,2.5082813E-3,-5.4689087E-2,-2.0592015E-2,5.507453E-2],"split_indices":[955,14,958,4,28,102,881,0,1,96,13,0,938,107,0,0,0,0,0,0,0,0,0,0,0],"split_type":[0,0,0,0,0,0,0,0,0,0,0,0,0,0,0,0,0,0,0,0,0,0,0,0,0],"sum_hessian":[1.2119109E3,5.724058E2,6.395051E2,3.4256798E1,5.3814905E2,1.4125827E2,4.9824686E2,6.958257E0,2.729854E1,5.2546246E2,1.268654E1,4.3769608E0,1.3688132E2,4.968649E2,1.3819354E0,1.1463983E0,2.6152142E1,5.0639935E0,5.203985E2,4.8645754E0,7.821964E0,3.2450917E0,1.3363623E2,1.0914549E0,4.9577347E2],"tree_param":{"num_deleted":"0","num_feature":"1030","num_nodes":"25","size_leaf_vector":"0"}},{"base_weights":[-1.14131354E-1,-9.089916E-1,6.5040356E-1,5.662288E-1,-1.0139492E0,-1.085634E0,1.0770754E0,1.1845521E0,-9.888034E-1,-1.0611651E0,2.4582563E-1,-7.715266E-1,1.0917845E0,2.8908393E-1,1.2071486E0,-1.0735996E0,9.596095E-1,-9.787999E-1,1.016885E0,-1.601705E-2,1.0942158E0],"categories":[],"categories_nodes":[],"categories_segments":[],"categories_sizes":[],"default_left":[1,1,1,1,1,0,1,1,0,1,1,0,1,0,0,0,0,0,0,0,0],"id":35,"left_children":[1,3,5,7,9,-1,11,13,-1,15,17,-1,19,-1,-1,-1,-1,-1,-1,-1,-1],"loss_changes":[7.0536896E2,8.867789E1,4.3947763E2,3.8128395E1,3.1879944E1,0E0,1.37716675E1,2.1671295E-1,0E0,1.3909546E1,1.9895184E1,0E0,1.2891846E0,0E0,0E0,0E0,0E0,0E0,0E0,0E0,0E0],"parents":[2147483647,0,0,1,1,2,2,3,3,4,4,6,6,7,7,9,9,10,10,12,12],"right_children":[2,4,6,8,10,-1,12,14,-1,16,18,-1,20,-1,-1,-1,-1,-1,-1,-1,-1],"split_conditions":[1.8954945E1,-5.519535E1,3.9568868E0,-1.931639E1,1.9162514E1,-5.42817E-2,-2.2251945E1,-8.5340786E-1,-4.944017E-2,3.1010303E0,-2.002344E0,-3.857633E-2,1.0231901E1,1.4454196E-2,6.035743E-2,-5.367998E-2,4.7980476E-2,-4.8939995E-2,5.0844252E-2,-8.008525E-4,5.4710787E-2],"split_indices":[28,96,31,11,955,0,40,262,0,717,940,0,997,0,0,0,0,0,0,0,0],"split_type":[0,0,0,0,0,0,0,0,0,0,0,0,0,0,0,0,0,0,0,0,0],"sum_hessian":[1.1587493E3,5.6801495E2,5.9073425E2,3.7436428E1,5.3057855E2,1.1623877E2,4.7449548E2,2.6956165E1,1.0480261E1,5.11563E2,1.9015543E1,3.3395238E0,4.7115594E2,1.0029745E0,2.5953192E1,5.0890027E2,2.662723E0,7.2428126E0,1.177273E1,1.0195434E0,4.701364E2],"tree_param":{"num_deleted":"0","num_feature":"1030","num_nodes":"21","size_leaf_vector":"0"}},{"base_weights":[-1.1326033E-1,-9.2610604E-1,6.209044E-1,7.795211E-1,-1.0155624E0,-9.924858E-1,1.0808692E0,1.1789364E0,-8.5086495E-1,-1.0623453E0,3.6684778E-1,-1.077403E0,4.5674604E-1,1.0875436E0,-6.4642936E-1,-1.071857E0,8.089104E-1,1.0227579E0,-9.2813313E-1,-2.5715265E-1,-1.082065E0,-7.3293656E-1,9.3900484E-1,-3.6165175E-1,1.0918092E0],"categories":[],"categories_nodes":[],"categories_segments":[],"categories_sizes":[],"default_left":[1,1,1,1,1,1,1,0,0,1,1,1,1,1,0,0,0,0,0,0,0,0,0,0,0],"id":36,"left_children":[1,3,5,7,9,11,13,-1,-1,15,17,19,21,23,-1,-1,-1,-1,-1,-1,-1,-1,-1,-1,-1],"loss_changes":[6.642273E2,8.137857E1,4.3514557E2,1.8511532E1,3.2873596E1,1.6525452E1,5.9558716E0,0E0,0E0,9.518982E0,1.5545868E1,1.934967E-1,5.228577E0,3.2028809E0,0E0,0E0,0E0,0E0,0E0,0E0,0E0,0E0,0E0,0E0,0E0],"parents":[2147483647,0,0,1,1,2,2,3,3,4,4,5,5,6,6,9,9,10,10,11,11,12,12,13,13],"right_children":[2,4,6,8,10,12,14,-1,-1,16,18,20,22,24,-1,-1,-1,-1,-1,-1,-1,-1,-1,-1,-1],"split_conditions":[1.8500824E1,-5.5576164E1,1.5119488E1,-1.9146215E1,1.8996878E1,1.686721E1,5.1168466E0,5.8946818E-2,-4.2543247E-2,3.1013205E0,-1.3566206E1,-4.872113E1,1.3304726E1,1.4269767E1,-3.2321468E-2,-5.359285E-2,4.044552E-2,5.1137894E-2,-4.6406657E-2,-1.2857633E-2,-5.410325E-2,-3.6646828E-2,4.6950243E-2,-1.8082587E-2,5.459046E-2],"split_indices":[955,199,958,11,28,31,881,0,0,923,11,735,4,210,0,0,0,0,0,0,0,0,0,0,0],"split_type":[0,0,0,0,0,0,0,0,0,0,0,0,0,0,0,0,0,0,0,0,0,0,0,0,0],"sum_hessian":[1.1110874E3,5.271647E2,5.839228E2,2.588635E1,5.0127832E2,1.292839E2,4.546389E2,2.1014961E1,4.8713894E0,4.8509354E2,1.6184795E1,1.2237023E2,6.9136662E0,4.5325784E2,1.3810314E0,4.8306528E2,2.028243E0,1.0882835E1,5.3019605E0,1.0089626E0,1.21361275E2,1.8442625E0,5.069404E0,1.0843127E0,4.5217352E2],"tree_param":{"num_deleted":"0","num_feature":"1030","num_nodes":"25","size_leaf_vector":"0"}},{"base_weights":[-1.10569574E-1,-8.974666E-1,6.3933575E-1,5.283948E-1,-1.0052007E0,-1.0749397E0,1.0619438E0,1.1908573E0,-9.2978454E-1,-1.0377085E0,1.8929781E-1,-7.5139135E-1,1.0791111E0,1.7257077E0,1.054327E0,-1.0172672E-1,-9.953744E-1,-1.0561966E0,4.5311514E-1,-7.930413E-1,1.034806E0,-2.0783961E-1,1.0836971E0],"categories":[],"categories_nodes":[],"categories_segments":[],"categories_sizes":[],"default_left":[1,1,1,1,1,0,1,1,1,1,1,0,1,0,0,0,0,0,0,0,0,0,0],"id":37,"left_children":[1,3,5,7,9,-1,11,13,15,17,19,-1,21,-1,-1,-1,-1,-1,-1,-1,-1,-1,-1],"loss_changes":[6.2565717E2,7.999725E1,3.945097E2,3.6845154E1,1.8886139E1,0E0,1.4386505E1,7.0194244E-2,5.569372E-1,1.3397522E1,1.2114393E1,0E0,2.7773132E0,0E0,0E0,0E0,0E0,0E0,0E0,0E0,0E0,0E0,0E0],"parents":[2147483647,0,0,1,1,2,2,3,3,4,4,6,6,7,7,8,8,9,9,10,10,12,12],"right_children":[2,4,6,8,10,-1,12,14,16,18,20,-1,22,-1,-1,-1,-1,-1,-1,-1,-1,-1,-1],"split_conditions":[1.8850914E1,-5.5121704E1,4.2791758E0,-2.305513E1,1.8996878E1,-5.3746987E-2,-2.2251945E1,-2.4810947E1,-5.5756172E1,3.0457106E0,1.5433229E1,-3.7569568E-2,1.4488468E1,8.628538E-2,5.2716352E-2,-5.086336E-3,-4.976872E-2,-5.280983E-2,2.2655757E-2,-3.9652064E-2,5.17403E-2,-1.039198E-2,5.4184854E-2],"split_indices":[646,96,546,423,28,0,658,362,714,820,828,0,828,0,0,0,0,0,0,0,0,0,0],"split_type":[0,0,0,0,0,0,0,0,0,0,0,0,0,0,0,0,0,0,0,0,0,0,0],"sum_hessian":[1.0582869E3,5.1631067E2,5.4197626E2,3.5996185E1,4.8031445E2,1.0688051E2,4.3509573E2,2.4877476E1,1.11187105E1,4.6771698E2,1.2597493E1,3.6794074E0,4.3141632E2,2.6919909E0,2.2185486E1,1.0032936E0,1.0115417E1,4.6227573E2,5.4412346E0,5.855932E0,6.7415605E0,1.3745257E0,4.300418E2],"tree_param":{"num_deleted":"0","num_feature":"1030","num_nodes":"23","size_leaf_vector":"0"}},{"base_weights":[-1.13960765E-1,-9.153384E-1,6.0712594E-1,5.9167886E-1,-1.0138652E0,-9.797306E-1,1.0718305E0,-9.129307E-1,1.0012387E0,-1.0483768E0,2.959683E-1,-1.0652084E0,5.083106E-1,1.0781736E0,-6.0340977E-1,1.0607011E0,-1.8107517E-1,4.1064966E-1,-1.0671371E0,-8.8724065E-1,1.0486887E0,-1.1898442E-1,-1.0724533E0,-6.709544E-1,9.258304E-1,-2.2002277E-1,1.0820601E0],"categories":[],"categories_nodes":[],"categories_segments":[],"categories_sizes":[],"default_left":[1,1,1,1,1,1,1,0,1,1,1,1,1,1,0,0,0,0,0,0,0,0,0,0,0,0,0],"id":38,"left_children":[1,3,5,7,9,11,13,-1,15,17,19,21,23,25,-1,-1,-1,-1,-1,-1,-1,-1,-1,-1,-1,-1,-1],"loss_changes":[5.868218E2,7.2007324E1,3.9529254E2,1.9489487E1,2.0732513E1,1.601104E1,5.0499268E0,0E0,1.8913746E0,1.2492645E1,1.19542885E1,6.630707E-1,4.2074757E0,2.3208618E0,0E0,0E0,0E0,0E0,0E0,0E0,0E0,0E0,0E0,0E0,0E0,0E0,0E0],"parents":[2147483647,0,0,1,1,2,2,3,3,4,4,5,5,6,6,8,8,9,9,10,10,11,11,12,12,13,13],"right_children":[2,4,6,8,10,12,14,-1,16,18,20,22,24,26,-1,-1,-1,-1,-1,-1,-1,-1,-1,-1,-1,-1,-1],"split_conditions":[1.8500824E1,-3.3871887E1,1.5119488E1,1.4316988E1,1.911668E1,1.686721E1,5.1168466E0,-4.5646537E-2,2.8507803E1,-5.5797752E1,1.1716285E0,-4.8879433E1,1.3304726E1,1.0101371E1,-3.017049E-2,5.3035058E-2,-9.053758E-3,2.0532483E-2,-5.3356856E-2,-4.4362035E-2,5.2434433E-2,-5.949221E-3,-5.3622663E-2,-3.354772E-2,4.6291523E-2,-1.1001139E-2,5.4103006E-2],"split_indices":[955,14,958,931,28,31,881,0,943,96,13,632,4,70,0,0,0,0,0,0,0,0,0,0,0,0,0],"split_type":[0,0,0,0,0,0,0,0,0,0,0,0,0,0,0,0,0,0,0,0,0,0,0,0,0,0,0],"sum_hessian":[1.01354205E3,4.799176E2,5.3362445E2,2.9143768E1,4.5077383E2,1.20621635E2,4.130028E2,5.9726934E0,2.3171076E1,4.393962E2,1.1377648E1,1.1433787E2,6.2837725E0,4.1179996E2,1.2028413E0,2.2159464E1,1.0116116E0,5.3128805E0,4.340833E2,4.3543262E0,7.0233226E0,1.0011727E0,1.1333669E2,1.4843359E0,4.7994366E0,1.0631711E0,4.107368E2],"tree_param":{"num_deleted":"0","num_feature":"1030","num_nodes":"27","size_leaf_vector":"0"}},{"base_weights":[-1.07037686E-1,-9.0915877E-1,6.164955E-1,5.9702367E-1,-1.0090106E0,-9.7352886E-1,1.0683033E0,-9.2390364E-1,9.8845327E-1,-1.0438948E0,3.303648E-1,8.554557E-1,-1.0422503E0,1.0737996E0,-5.5298156E-1,-2.3971209E-1,1.0554826E0,1.4407316E-1,-1.0660473E0,-8.651406E-1,1.0347344E0,3.998891E-1,-1.059491E0,-2.2961932E-1,1.0777278E0],"categories":[],"categories_nodes":[],"categories_segments":[],"categories_sizes":[],"default_left":[1,1,1,1,1,1,1,0,1,1,1,0,1,1,0,0,0,0,0,0,0,0,0,0,0],"id":39,"left_children":[1,3,5,7,9,11,13,-1,15,17,19,-1,21,23,-1,-1,-1,-1,-1,-1,-1,-1,-1,-1,-1],"loss_changes":[5.643589E2,6.995166E1,3.6838422E2,1.8354828E1,2.0567444E1,1.5179047E1,4.1464233E0,0E0,2.210949E0,1.1261017E1,1.0786453E1,0E0,3.158844E0,2.2835693E0,0E0,0E0,0E0,0E0,0E0,0E0,0E0,0E0,0E0,0E0,0E0],"parents":[2147483647,0,0,1,1,2,2,3,3,4,4,5,5,6,6,8,8,9,9,10,10,12,12,13,13],"right_children":[2,4,6,8,10,12,14,-1,16,18,20,-1,22,24,-1,-1,-1,-1,-1,-1,-1,-1,-1,-1,-1],"split_conditions":[1.8500824E1,-3.3871887E1,1.5119488E1,1.4652158E1,1.911668E1,-1.8291668E1,6.0225115E0,-4.6195183E-2,3.832998E1,-5.557653E1,1.1716285E0,4.2772785E-2,-2.729566E1,1.4229897E1,-2.7649079E-2,-1.1985605E-2,5.277413E-2,7.203658E-3,-5.3302366E-2,-4.325703E-2,5.173672E-2,1.9994456E-2,-5.2974552E-2,-1.1480967E-2,5.388639E-2],"split_indices":[955,14,958,4,28,102,675,0,1,96,13,0,938,416,0,0,0,0,0,0,0,0,0,0,0],"split_type":[0,0,0,0,0,0,0,0,0,0,0,0,0,0,0,0,0,0,0,0,0,0,0,0,0],"sum_hessian":[9.704612E2,4.6011423E2,5.1034695E2,2.8297056E1,4.3181717E2,1.1267185E2,3.9767508E2,5.5135274E0,2.278353E1,4.2107092E2,1.074626E1,3.6655989E0,1.09006256E2,3.9666803E2,1.0070599E0,1.0457755E0,2.1737753E1,7.607397E0,4.134635E2,3.8995028E0,6.8467565E0,1.0255786E0,1.07980675E2,1.0192311E0,3.956488E2],"tree_param":{"num_deleted":"0","num_feature":"1030","num_nodes":"25","size_leaf_vector":"0"}},{"base_weights":[-1.0882297E-1,-8.907779E-1,6.253212E-1,3.4606123E-1,-1.0102347E0,-9.847351E-1,1.0708897E0,-9.673723E-1,1.1103499E0,-1.0523497E0,1.4645581E-1,7.3371655E-1,-1.0398254E0,-2.1272682E-1,-1.0054233E0,1.1976901E0,-4.5974377E-1,8.634969E-1,-1.0623751E0,-9.396112E-1,9.7686476E-1,-1.063078E0,5.6477565E-1],"categories":[],"categories_nodes":[],"categories_segments":[],"categories_sizes":[],"default_left":[1,1,1,1,1,1,0,1,1,1,1,0,1,0,0,0,0,0,0,0,0,0,0],"id":40,"left_children":[1,3,5,7,9,11,-1,13,15,17,19,-1,21,-1,-1,-1,-1,-1,-1,-1,-1,-1,-1],"loss_changes":[5.3421906E2,6.691962E1,3.4543994E2,4.1657925E1,2.0182129E1,1.0663078E1,0E0,2.2850227E-1,4.1191483E0,8.539032E0,1.4735824E1,0E0,4.396469E0,0E0,0E0,0E0,0E0,0E0,0E0,0E0,0E0,0E0,0E0],"parents":[2147483647,0,0,1,1,2,2,3,3,4,4,5,5,7,7,8,8,9,9,10,10,12,12],"right_children":[2,4,6,8,10,12,-1,14,16,18,20,-1,22,-1,-1,-1,-1,-1,-1,-1,-1,-1,-1],"split_conditions":[1.8735012E1,-3.0090118E1,1.5119488E1,1.5128043E1,1.8827179E1,1.4277854E0,5.3544488E-2,-1.429452E1,1.260466E2,-4.0296127E1,1.6309305E1,3.6685828E-2,1.0080639E1,-1.0636341E-2,-5.0271165E-2,5.9884507E-2,-2.2987189E-2,4.3174844E-2,-5.3118754E-2,-4.698056E-2,4.884324E-2,-5.3153902E-2,2.8238783E-2],"split_indices":[28,14,31,4,955,218,0,580,92,629,752,0,42,0,0,0,0,0,0,0,0,0,0],"split_type":[0,0,0,0,0,0,0,0,0,0,0,0,0,0,0,0,0,0,0,0,0,0,0],"sum_hessian":[9.286152E2,4.495622E2,4.79053E2,3.9428463E1,4.1013373E2,1.03575195E2,3.754778E2,1.440599E1,2.5022472E1,3.9581244E2,1.4321277E1,2.8346484E0,1.0074055E2,1.0078759E0,1.3398113E1,2.3928574E1,1.0938984E0,1.6173146E0,3.9419513E2,6.148428E0,8.172849E0,9.963421E1,1.1063387E0],"tree_param":{"num_deleted":"0","num_feature":"1030","num_nodes":"23","size_leaf_vector":"0"}},{"base_weights":[-1.1409158E-1,-8.878163E-1,6.180569E-1,3.457048E-1,-1.0058366E0,-9.7636807E-1,1.0662842E0,-8.730873E-1,1.1508183E0,-1.0414587E0,4.5482153E-1,6.999337E-1,-1.033931E0,1.0679935E0,2.3053786E-1,-1.0055794E0,3.9312074E-1,1.1943839E0,8.31474E-2,-1.0544109E0,8.070371E-1,-7.686204E-1,9.324146E-1,-1.0588338E0,5.722441E-1],"categories":[],"categories_nodes":[],"categories_segments":[],"categories_sizes":[],"default_left":[1,1,1,1,1,1,1,1,1,1,1,0,1,0,0,0,0,0,0,0,0,0,0,0,0],"id":41,"left_children":[1,3,5,7,9,11,13,15,17,19,21,-1,23,-1,-1,-1,-1,-1,-1,-1,-1,-1,-1,-1,-1],"loss_changes":[5.034915E2,6.3248993E1,3.2747424E2,3.875795E1,2.1005402E1,1.0445496E1,2.6385498E-1,3.0583124E0,9.9842453E-1,1.0080719E1,6.6125054E0,0E0,4.518158E0,0E0,0E0,0E0,0E0,0E0,0E0,0E0,0E0,0E0,0E0,0E0,0E0],"parents":[2147483647,0,0,1,1,2,2,3,3,4,4,5,5,6,6,7,7,8,8,9,9,10,10,12,12],"right_children":[2,4,6,8,10,12,14,16,18,20,22,-1,24,-1,-1,-1,-1,-1,-1,-1,-1,-1,-1,-1,-1],"split_conditions":[1.8735012E1,-3.0090118E1,1.5119488E1,1.619669E1,1.9959488E1,1.4277854E0,4.8640413E0,6.2351227E0,-1.4400724E1,3.1010303E0,-3.485368E0,3.4996685E-2,1.0080639E1,5.339968E-2,1.1526893E-2,-5.027897E-2,1.9656038E-2,5.9719194E-2,4.15737E-3,-5.2720547E-2,4.0351856E-2,-3.843102E-2,4.662073E-2,-5.294169E-2,2.8612206E-2],"split_indices":[28,14,31,107,955,218,778,319,750,717,734,0,42,0,0,0,0,0,0,0,0,0,0,0,0],"split_type":[0,0,0,0,0,0,0,0,0,0,0,0,0,0,0,0,0,0,0,0,0,0,0,0,0],"sum_hessian":[8.8683636E2,4.310723E2,4.5576407E2,3.747395E1,3.9359836E2,9.975156E1,3.560125E2,1.4873625E1,2.2600327E1,3.8450806E2,9.090294E0,2.9411912E0,9.681036E1,3.5500848E2,1.0040188E0,1.3651055E1,1.222569E0,2.1600264E1,1.0000625E0,3.8225922E2,2.2488437E0,2.3811586E0,6.709135E0,9.566786E1,1.1424997E0],"tree_param":{"num_deleted":"0","num_feature":"1030","num_nodes":"25","size_leaf_vector":"0"}},{"base_weights":[-1.061011E-1,-8.94085E-1,6.0742855E-1,5.9013844E-1,-9.954205E-1,-9.5549095E-1,1.0569885E0,-8.154918E-1,9.839021E-1,-9.70429E-2,-1.0417353E0,-1.0428294E0,4.100074E-1,1.0625906E0,-3.824765E-1,-2.2817016E-1,-8.845473E-1,-1.4695571E-2,1.0347688E0,-9.843697E-1,1.4154382E0,5.6250435E-1,-1.0569623E0,3.820371E-2,-1.0548744E0,-6.797512E-1,8.85034E-1,1.0661404E0,-7.264701E-2],"categories":[],"categories_nodes":[],"categories_segments":[],"categories_sizes":[],"default_left":[1,1,1,1,1,1,1,1,1,1,1,1,1,1,0,0,0,0,0,0,0,0,0,0,0,0,0,0,0],"id":42,"left_children":[1,3,5,7,9,11,13,15,17,19,21,23,25,27,-1,-1,-1,-1,-1,-1,-1,-1,-1,-1,-1,-1,-1,-1,-1],"loss_changes":[4.766435E2,6.1170258E1,3.1366327E2,1.5398519E1,1.5602905E1,1.2344948E1,3.1970215E0,5.440283E-2,1.0846367E0,2.7706656E1,9.359741E0,1.2668991E0,4.0828924E0,1.4676514E0,0E0,0E0,0E0,0E0,0E0,0E0,0E0,0E0,0E0,0E0,0E0,0E0,0E0,0E0,0E0],"parents":[2147483647,0,0,1,1,2,2,3,3,4,4,5,5,6,6,7,7,8,8,9,9,10,10,11,11,12,12,13,13],"right_children":[2,4,6,8,10,12,14,16,18,20,22,24,26,28,-1,-1,-1,-1,-1,-1,-1,-1,-1,-1,-1,-1,-1,-1,-1],"split_conditions":[1.8500824E1,-3.3871887E1,1.5119488E1,1.4316988E1,-3.0797531E1,1.686721E1,5.016872E0,-3.980501E1,1.289155E0,2.6821632E0,-3.624717E1,-2.5683365E1,1.3134472E1,3.4490154E0,-1.9123826E-2,-1.1408508E-2,-4.4227365E-2,-7.347785E-4,5.173844E-2,-4.9218487E-2,7.077191E-2,2.8125217E-2,-5.284811E-2,1.9101854E-3,-5.274372E-2,-3.3987563E-2,4.4251703E-2,5.3307023E-2,-3.6323506E-3],"split_indices":[955,14,855,931,11,31,984,117,77,245,938,11,4,15,0,0,0,0,0,0,0,0,0,0,0,0,0,0,0],"split_type":[0,0,0,0,0,0,0,0,0,0,0,0,0,0,0,0,0,0,0,0,0,0,0,0,0,0,0,0,0],"sum_hessian":[8.457772E2,4.0179895E2,4.4397827E2,2.5371313E1,3.7642764E2,9.8927185E1,3.450511E2,5.317664E0,2.0053648E1,1.8606604E1,3.5782104E2,9.320219E1,5.7249937E0,3.439742E2,1.0768695E0,1.0122833E0,4.305381E0,1.006452E0,1.9047195E1,1.1946893E1,6.659711E0,3.0264695E0,3.547946E2,1.0030897E0,9.21991E1,1.6071215E0,4.117872E0,3.4296265E2,1.0115576E0],"tree_param":{"num_deleted":"0","num_feature":"1030","num_nodes":"29","size_leaf_vector":"0"}},{"base_weights":[-1.0898759E-1,-8.775819E-1,6.1452854E-1,2.711892E-1,-1.0031809E0,-9.759511E-1,1.0600064E0,1.1403165E0,-9.65121E-1,-1.0365756E0,-1.4616928E-2,6.912462E-1,-1.0281664E0,1.175706E0,1.8050627E-1,-9.987236E-1,-2.1745458E-1,-1.0507901E0,7.9245734E-1,-9.227467E-1,9.136017E-1,-1.0506302E0,4.7546345E-1],"categories":[],"categories_nodes":[],"categories_segments":[],"categories_sizes":[],"default_left":[1,1,1,1,1,1,0,1,1,1,1,0,1,0,0,0,0,0,0,0,0,0,0],"id":43,"left_children":[1,3,5,7,9,11,-1,13,15,17,19,-1,21,-1,-1,-1,-1,-1,-1,-1,-1,-1,-1],"loss_changes":[4.4955807E2,5.6823334E1,2.9614398E2,4.3453674E1,1.1655731E1,8.6896515E0,0E0,5.895252E-1,2.0521641E-1,9.723297E0,1.1435901E1,0E0,3.5149841E0,0E0,0E0,0E0,0E0,0E0,0E0,0E0,0E0,0E0,0E0],"parents":[2147483647,0,0,1,1,2,2,3,3,4,4,5,5,7,7,8,8,9,9,10,10,12,12],"right_children":[2,4,6,8,10,12,-1,14,16,18,20,-1,22,-1,-1,-1,-1,-1,-1,-1,-1,-1,-1],"split_conditions":[1.8735012E1,-5.4598583E1,1.5119488E1,-1.9572998E1,1.894743E1,1.1685687E0,5.300032E-2,-1.8286532E-1,-2.236263E1,3.1010303E0,-2.002344E0,3.4562312E-2,1.4523821E1,5.87853E-2,9.025314E-3,-4.9936183E-2,-1.0872729E-2,-5.2539505E-2,3.962287E-2,-4.6137337E-2,4.5680087E-2,-5.253151E-2,2.3773173E-2],"split_indices":[28,199,31,217,955,115,0,922,555,717,940,0,527,0,0,0,0,0,0,0,0,0,0],"split_type":[0,0,0,0,0,0,0,0,0,0,0,0,0,0,0,0,0,0,0,0,0,0,0],"sum_hessian":[8.064565E2,3.9094305E2,4.1551343E2,3.841619E1,3.5252686E2,9.06559E1,3.2485754E2,2.260353E1,1.581266E1,3.4096033E2,1.156654E1,2.3813899E0,8.827451E1,2.1582808E1,1.0207236E0,1.4811207E1,1.001453E0,3.3875314E2,2.2071645E0,5.849516E0,5.717024E0,8.727196E1,1.0025513E0],"tree_param":{"num_deleted":"0","num_feature":"1030","num_nodes":"23","size_leaf_vector":"0"}},{"base_weights":[-1.0975646E-1,-8.896572E-1,5.9520406E-1,7.0837724E-1,-9.783704E-1,-9.56286E-1,1.04862E0,-7.866407E-1,1.0014085E0,-1.6904851E-2,-1.0339063E0,-1.0373065E0,3.8112372E-1,1.0553617E0,-4.1335347E-1,-9.757069E-1,1.2681798E0,4.568183E-1,-1.0471263E0,-7.786207E-2,-1.0475605E0,-6.472206E-1,8.478279E-1,-5.1830254E-2,1.0590721E0],"categories":[],"categories_nodes":[],"categories_segments":[],"categories_sizes":[],"default_left":[1,1,1,1,1,1,1,0,0,1,1,1,1,1,0,0,0,0,0,0,0,0,0,0,0],"id":44,"left_children":[1,3,5,7,9,11,13,-1,-1,15,17,19,21,23,-1,-1,-1,-1,-1,-1,-1,-1,-1,-1,-1],"loss_changes":[4.2505408E2,5.2719788E1,2.8672168E2,9.49758E0,1.8570007E1,1.0405052E1,3.5387878E0,0E0,0E0,2.5912056E1,6.963684E0,7.77977E-1,3.4320917E0,1.3432922E0,0E0,0E0,0E0,0E0,0E0,0E0,0E0,0E0,0E0,0E0,0E0],"parents":[2147483647,0,0,1,1,2,2,3,3,4,4,5,5,6,6,9,9,10,10,11,11,12,12,13,13],"right_children":[2,4,6,8,10,12,14,-1,-1,16,18,20,22,24,-1,-1,-1,-1,-1,-1,-1,-1,-1,-1,-1],"split_conditions":[1.8500824E1,-3.5800724E1,1.5119488E1,1.4643873E1,-3.0797531E1,1.686721E1,5.016872E0,-3.9332036E-2,5.0070424E-2,1.1911141E1,-3.624717E1,-4.859487E1,1.3134472E1,1.0301981E1,-2.0667674E-2,-4.8785344E-2,6.340899E-2,2.2840915E-2,-5.2356314E-2,-3.8931035E-3,-5.2378025E-2,-3.236103E-2,4.2391397E-2,-2.5915129E-3,5.295361E-2],"split_indices":[955,117,855,107,11,31,984,0,0,379,938,632,4,482,0,0,0,0,0,0,0,0,0,0,0],"split_type":[0,0,0,0,0,0,0,0,0,0,0,0,0,0,0,0,0,0,0,0,0,0,0,0,0],"sum_hessian":[7.711447E2,3.659883E2,4.0515637E2,1.8881512E1,3.471068E2,9.1376595E1,3.137798E2,2.8183022E0,1.606321E1,1.9025848E1,3.2808096E2,8.636875E1,5.0078435E0,3.126163E2,1.1634722E0,1.1034071E1,7.9917784E0,2.5889466E0,3.25492E2,1.0041654E0,8.5364586E1,1.4425386E0,3.5653048E0,1.0008199E0,3.1161548E2],"tree_param":{"num_deleted":"0","num_feature":"1030","num_nodes":"25","size_leaf_vector":"0"}},{"base_weights":[-1.1304427E-1,-8.67868E-1,6.104018E-1,3.2129005E-1,-9.8542017E-1,-9.6190274E-1,1.0519497E0,-8.490648E-1,1.0977925E0,-1.0200799E0,4.175511E-1,6.8994886E-1,-1.0190266E0,2.3660472E-1,1.0539087E0,-9.82478E-1,3.665913E-1,1.1422077E0,1.15246095E-1,-1.0370315E0,8.276553E-1,-7.335328E-1,8.9872104E-1,4.383223E-1,-1.0433375E0],"categories":[],"categories_nodes":[],"categories_segments":[],"categories_sizes":[],"default_left":[1,1,1,1,1,1,1,1,1,1,1,0,1,0,0,0,0,0,0,0,0,0,0,0,0],"id":45,"left_children":[1,3,5,7,9,11,13,15,17,19,21,-1,23,-1,-1,-1,-1,-1,-1,-1,-1,-1,-1,-1,-1],"loss_changes":[4.0597183E2,5.116681E1,2.646179E2,3.1356981E1,1.6535309E1,8.607986E0,2.2491455E-1,2.6172628E0,7.656841E-1,1.09939575E1,5.475964E0,0E0,3.3404617E0,0E0,0E0,0E0,0E0,0E0,0E0,0E0,0E0,0E0,0E0,0E0,0E0],"parents":[2147483647,0,0,1,1,2,2,3,3,4,4,5,5,6,6,7,7,8,8,9,9,10,10,12,12],"right_children":[2,4,6,8,10,12,14,16,18,20,22,-1,24,-1,-1,-1,-1,-1,-1,-1,-1,-1,-1,-1,-1],"split_conditions":[1.8735012E1,-3.0090118E1,1.5119488E1,1.619669E1,1.9959488E1,1.1685687E0,-2.395766E0,6.2351227E0,2.3194194E0,3.1010303E0,-3.485368E0,3.4497444E-2,1.7393422E0,1.1830236E-2,5.2695435E-2,-4.9123902E-2,1.8329566E-2,5.7110388E-2,5.7623046E-3,-5.1851578E-2,4.1382767E-2,-3.667664E-2,4.4936053E-2,2.1916116E-2,-5.2166875E-2],"split_indices":[28,14,31,107,955,115,116,319,999,717,734,0,79,0,0,0,0,0,0,0,0,0,0,0,0],"split_type":[0,0,0,0,0,0,0,0,0,0,0,0,0,0,0,0,0,0,0,0,0,0,0,0,0],"sum_hessian":[7.4146686E2,3.6276657E2,3.787003E2,3.2478695E1,3.3028787E2,8.277367E1,2.9592664E2,1.291683E1,1.9561867E1,3.2259134E2,7.6965337E0,2.3964837E0,8.037718E1,1.0012139E0,2.949254E2,1.1812293E1,1.1045372E0,1.8560364E1,1.0015036E0,3.2009344E2,2.4978924E0,2.1142406E0,5.582293E0,1.0393887E0,7.933779E1],"tree_param":{"num_deleted":"0","num_feature":"1030","num_nodes":"25","size_leaf_vector":"0"}},{"base_weights":[-1.0513403E-1,-8.632442E-1,6.1390495E-1,2.5831625E-1,-9.989785E-1,-9.578968E-1,1.0486594E0,1.0795813E0,-9.9045557E-1,-1.0201108E0,4.3399945E-1,6.6853255E-1,-1.0145819E0,1.0507224E0,2.3532026E-1,1.1560361E0,-2.924558E-1,-1.040621E0,1.0018577E-1,-6.011736E-1,9.148223E-1,4.3562216E-1,-1.0397493E0],"categories":[],"categories_nodes":[],"categories_segments":[],"categories_sizes":[],"default_left":[1,1,1,1,1,1,1,1,0,1,1,0,1,0,0,0,0,0,0,0,0,0,0],"id":46,"left_children":[1,3,5,7,9,11,13,15,-1,17,19,-1,21,-1,-1,-1,-1,-1,-1,-1,-1,-1,-1],"loss_changes":[3.855305E2,5.2659332E1,2.4910408E2,3.999497E1,9.747192E0,7.9788437E0,2.3071289E-1,2.7901344E0,0E0,7.068573E0,3.1217012E0,0E0,3.2602386E0,0E0,0E0,0E0,0E0,0E0,0E0,0E0,0E0,0E0,0E0],"parents":[2147483647,0,0,1,1,2,2,3,3,4,4,5,5,6,6,7,7,9,9,10,10,12,12],"right_children":[2,4,6,8,10,12,14,16,-1,18,20,-1,22,-1,-1,-1,-1,-1,-1,-1,-1,-1,-1],"split_conditions":[1.8735012E1,-5.4472473E1,1.5119488E1,-1.9388815E1,3.0457106E0,1.1685687E0,4.8243036E0,-1.5110668E1,-4.952278E-2,1.994582E1,3.8983543E1,3.3426628E-2,3.63671E-1,5.253612E-2,1.1766013E-2,5.780181E-2,-1.462279E-2,-5.203105E-2,5.0092884E-3,-3.005868E-2,4.5741115E-2,2.1781107E-2,-5.1987465E-2],"split_indices":[28,96,31,11,820,115,984,426,0,749,1,0,387,0,0,0,0,0,0,0,0,0,0],"split_type":[0,0,0,0,0,0,0,0,0,0,0,0,0,0,0,0,0,0,0,0,0,0,0],"sum_hessian":[7.052795E2,3.4321466E2,3.6206482E2,3.695508E1,3.0625958E2,7.8186775E1,2.8387805E2,2.2375278E1,1.45798E1,3.020927E2,4.166876E0,2.269705E0,7.5917076E1,2.8286874E2,1.0093106E0,2.1343378E1,1.0319E0,2.967313E2,5.361398E0,1.2422054E0,2.9246702E0,1.0168136E0,7.490026E1],"tree_param":{"num_deleted":"0","num_feature":"1030","num_nodes":"23","size_leaf_vector":"0"}},{"base_weights":[-1.07074015E-1,-8.7859845E-1,5.904844E-1,5.5108577E-1,-9.7755057E-1,-9.325561E-1,1.0401032E0,-8.0351967E-1,9.403815E-1,-5.9597813E-2,-1.0274984E0,-1.0282961E0,4.3500578E-1,1.0471461E0,-3.7922928E-1,-5.278029E-2,1.0062846E0,-9.504036E-1,1.2310369E0,4.923523E-1,-1.0438186E0,-1.6808356E-1,-1.0374942E0,-6.136733E-1,8.508052E-1,1.6711414E-1,1.0498087E0],"categories":[],"categories_nodes":[],"categories_segments":[],"categories_sizes":[],"default_left":[1,1,1,1,1,1,1,0,1,1,1,1,1,1,0,0,0,0,0,0,0,0,0,0,0,0,0],"id":47,"left_children":[1,3,5,7,9,11,13,-1,15,17,19,21,23,25,-1,-1,-1,-1,-1,-1,-1,-1,-1,-1,-1,-1,-1],"loss_changes":[3.635098E2,4.590251E1,2.4394275E2,1.2038904E1,1.37057495E1,1.1104851E1,3.1401978E0,0E0,1.1710968E0,2.020502E1,7.5759277E0,4.2988586E-1,3.1507473E0,4.6505737E-1,0E0,0E0,0E0,0E0,0E0,0E0,0E0,0E0,0E0,0E0,0E0,0E0,0E0],"parents":[2147483647,0,0,1,1,2,2,3,3,4,4,5,5,6,6,8,8,9,9,10,10,11,11,12,12,13,13],"right_children":[2,4,6,8,10,12,14,-1,16,18,20,22,24,26,-1,-1,-1,-1,-1,-1,-1,-1,-1,-1,-1,-1,-1],"split_conditions":[1.8500824E1,-3.3871887E1,1.5335374E1,1.4316988E1,-3.0797531E1,1.686721E1,6.830954E1,-4.0175986E-2,1.604214E1,2.6821632E0,-3.624717E1,1.3821118E0,1.3134472E1,1.4482536E1,-1.8961465E-2,-2.6390145E-3,5.031423E-2,-4.752018E-2,6.1551847E-2,2.4617616E-2,-5.219093E-2,-8.404179E-3,-5.187471E-2,-3.0683666E-2,4.2540263E-2,8.355707E-3,5.249044E-2],"split_indices":[955,14,958,931,11,31,150,0,110,245,938,105,4,210,0,0,0,0,0,0,0,0,0,0,0,0,0],"split_type":[0,0,0,0,0,0,0,0,0,0,0,0,0,0,0,0,0,0,0,0,0,0,0,0,0,0,0],"sum_hessian":[6.734747E2,3.1965988E2,3.538148E2,2.0396526E1,2.9926337E2,8.03985E1,2.7341626E2,4.3156447E0,1.6080883E1,1.55564575E1,2.837069E2,7.537009E1,5.0284142E0,2.7232718E2,1.089092E0,1.0130659E0,1.5067817E1,9.35984E0,6.1966166E0,2.7042048E0,2.810027E2,1.0013053E0,7.436878E1,1.292568E0,3.7358463E0,1.0138377E0,2.7131335E2],"tree_param":{"num_deleted":"0","num_feature":"1030","num_nodes":"27","size_leaf_vector":"0"}},{"base_weights":[-1.0539852E-1,-8.496765E-1,6.043023E-1,3.0406806E-1,-9.81635E-1,-9.4848704E-1,1.0432388E0,1.0977888E0,-9.7217155E-1,-1.0204773E0,-2.5526121E-2,6.4340377E-1,-1.0084572E0,2.4006218E-1,1.0454322E0,1.148549E0,4.4146273E-2,-1.034147E0,6.9207376E-1,-9.0659356E-1,9.047932E-1,-1.0337274E0,3.8178217E-1],"categories":[],"categories_nodes":[],"categories_segments":[],"categories_sizes":[],"default_left":[1,1,1,1,1,1,1,1,0,1,1,0,1,0,0,0,0,0,0,0,0,0,0],"id":48,"left_children":[1,3,5,7,9,11,13,15,-1,17,19,-1,21,-1,-1,-1,-1,-1,-1,-1,-1,-1,-1],"loss_changes":[3.4127838E2,4.830298E1,2.264672E2,3.462233E1,1.0490601E1,7.6588516E0,2.0422363E-1,1.066721E0,0E0,7.0856323E0,1.0722713E1,0E0,2.894394E0,0E0,0E0,0E0,0E0,0E0,0E0,0E0,0E0,0E0,0E0],"parents":[2147483647,0,0,1,1,2,2,3,3,4,4,5,5,6,6,7,7,9,9,10,10,12,12],"right_children":[2,4,6,8,10,12,14,16,-1,18,20,-1,22,-1,-1,-1,-1,-1,-1,-1,-1,-1,-1],"split_conditions":[1.8735012E1,-5.463203E1,1.5119488E1,-1.9388815E1,1.8827179E1,1.4277854E0,-2.243724E1,-1.7301865E1,-4.860858E-2,3.1010303E0,-1.7645329E0,3.2170188E-2,1.434981E1,1.2003109E-2,5.2271612E-2,5.7427447E-2,2.2073137E-3,-5.1707353E-2,3.460369E-2,-4.532968E-2,4.523966E-2,-5.1686373E-2,1.9089108E-2],"split_indices":[28,199,31,11,955,218,43,320,0,717,940,0,218,0,0,0,0,0,0,0,0,0,0],"split_type":[0,0,0,0,0,0,0,0,0,0,0,0,0,0,0,0,0,0,0,0,0,0,0],"sum_hessian":[6.441258E2,3.1430765E2,3.2981818E2,3.2125195E1,2.8218243E2,7.242949E1,2.5738867E2,1.9893085E1,1.2232111E1,2.711015E2,1.108094E1,2.2763264E0,7.015316E1,1.0018171E0,2.5638687E2,1.8892832E1,1.0002534E0,2.693477E2,1.7538155E0,5.7042146E0,5.3767257E0,6.915262E1,1.0005422E0],"tree_param":{"num_deleted":"0","num_feature":"1030","num_nodes":"23","size_leaf_vector":"0"}},{"base_weights":[-1.0394612E-1,-8.482929E-1,6.0427815E-1,3.6784026E-1,-9.733402E-1,-9.4748944E-1,1.0403684E0,-9.019764E-1,1.0692648E0,-1.0174679E0,1.5703155E-1,6.083396E-1,-1.004264E0,2.3681723E-1,1.0426936E0,-9.4430864E-1,-2.4644022E-1,-5.115852E-2,1.1362022E0,7.515767E-1,-1.0298063E0,-8.586885E-1,9.09153E-1,3.5828137E-1,-1.0304594E0],"categories":[],"categories_nodes":[],"categories_segments":[],"categories_sizes":[],"default_left":[1,1,1,1,1,1,1,1,1,1,1,0,1,0,0,0,0,0,0,0,0,0,0,0,0],"id":49,"left_children":[1,3,5,7,9,11,13,15,17,19,21,-1,23,-1,-1,-1,-1,-1,-1,-1,-1,-1,-1,-1,-1],"loss_changes":[3.2359988E2,4.5863876E1,2.1390826E2,2.6460508E1,1.3707764E1,6.754284E0,2.1289062E-1,6.499386E-2,1.4753857E0,6.482666E0,9.238343E0,0E0,2.7776337E0,0E0,0E0,0E0,0E0,0E0,0E0,0E0,0E0,0E0,0E0,0E0,0E0],"parents":[2147483647,0,0,1,1,2,2,3,3,4,4,5,5,6,6,7,7,8,8,9,9,10,10,12,12],"right_children":[2,4,6,8,10,12,14,16,18,20,22,-1,24,-1,-1,-1,-1,-1,-1,-1,-1,-1,-1,-1,-1],"split_conditions":[1.8735012E1,-3.0090118E1,1.5119488E1,1.5128043E1,1.8827179E1,1.4277854E0,1.4563711E1,1.7997408E1,3.890319E1,-4.0296127E1,1.6309305E1,3.041698E-2,1.7556343E0,1.1840861E-2,5.213468E-2,-4.7215432E-2,-1.2322011E-2,-2.557926E-3,5.681011E-2,3.7578836E-2,-5.1490314E-2,-4.2934425E-2,4.545765E-2,1.791407E-2,-5.152297E-2],"split_indices":[28,14,31,4,955,218,4,934,310,629,752,0,594,0,0,0,0,0,0,0,0,0,0,0,0],"split_type":[0,0,0,0,0,0,0,0,0,0,0,0,0,0,0,0,0,0,0,0,0,0,0,0,0],"sum_hessian":[6.118776E2,2.982343E2,3.136433E2,2.7625368E1,2.7060892E2,6.854887E1,2.4509445E2,9.728165E0,1.7897205E1,2.605379E2,1.007104E1,2.0713491E0,6.6477516E1,1.0039132E0,2.4409055E2,8.724268E0,1.0038964E0,1.0222445E0,1.687496E1,1.3895928E0,2.591483E2,4.2244053E0,5.8466353E0,1.0148201E0,6.54627E1],"tree_param":{"num_deleted":"0","num_feature":"1030","num_nodes":"25","size_leaf_vector":"0"}},{"base_weights":[-1.1054725E-1,-8.5190594E-1,5.9946483E-1,1.823294E-1,-9.9236846E-1,-9.3920153E-1,1.0376705E0,-9.801164E-1,1.0304037E0,-1.023035E0,1.542708E-1,6.52526E-1,-1.0008636E0,2.354377E-1,1.0401125E0,1.1007718E0,-1.738245E-1,-1.0359801E0,7.636089E-1,-7.7030265E-1,8.3492374E-1,-1.0274482E0,3.5056853E-1],"categories":[],"categories_nodes":[],"categories_segments":[],"categories_sizes":[],"default_left":[1,1,1,1,1,1,1,0,1,1,1,0,1,0,0,0,0,0,0,0,0,0,0],"id":50,"left_children":[1,3,5,7,9,11,13,-1,15,17,19,-1,21,-1,-1,-1,-1,-1,-1,-1,-1,-1,-1],"loss_changes":[3.101194E2,4.20419E1,2.0394795E2,3.581076E1,9.084305E0,7.2540207E0,2.1505737E-1,0E0,1.9621944E0,6.51239E0,5.3513207E0,0E0,2.7005234E0,0E0,0E0,0E0,0E0,0E0,0E0,0E0,0E0,0E0,0E0],"parents":[2147483647,0,0,1,1,2,2,3,3,4,4,5,5,6,6,8,8,9,9,10,10,12,12],"right_children":[2,4,6,8,10,12,14,-1,16,18,20,-1,22,-1,-1,-1,-1,-1,-1,-1,-1,-1,-1],"split_conditions":[1.8735012E1,-2.853545E1,1.5119488E1,5.916076E-1,1.9140291E1,1.1685687E0,1.5320163E1,-4.900582E-2,7.4630337E0,3.0987844E0,-2.002344E0,3.26263E-2,9.398943E0,1.1771886E-2,5.2005626E-2,5.503859E-2,-8.691225E-3,-5.1799007E-2,3.8180444E-2,-3.8515132E-2,4.1746188E-2,-5.137241E-2,1.7528428E-2],"split_indices":[28,11,31,80,955,115,134,0,106,614,940,0,145,0,0,0,0,0,0,0,0,0,0],"split_type":[0,0,0,0,0,0,0,0,0,0,0,0,0,0,0,0,0,0,0,0,0,0,0],"sum_hessian":[5.8719183E2,2.8715707E2,3.0003473E2,3.430069E1,2.528564E2,6.625412E1,2.3378061E2,1.4402986E1,1.9897705E1,2.4637495E2,6.481447E0,2.1135373E0,6.414059E1,1.0050844E0,2.3277553E2,1.8880358E1,1.0173466E0,2.4501982E2,1.3551253E0,2.692434E0,3.7890131E0,6.3138294E1,1.0022893E0],"tree_param":{"num_deleted":"0","num_feature":"1030","num_nodes":"23","size_leaf_vector":"0"}},{"base_weights":[-1.0495593E-1,-8.546019E-1,5.8608836E-1,7.2589946E-1,-9.501109E-1,-9.397605E-1,1.0300194E0,1.06961E0,-7.5902843E-1,-9.8976207E-1,3.3896238E-1,-1.0124944E0,4.0061018E-1,1.0368395E0,-2.1549647E-1,3.1101605E-1,1.1059608E0,-1.0081005E0,8.4021384E-1,-7.323543E-1,8.703826E-1,-1.1955098E-1,-1.0251056E0,-3.0750832E-1,7.2669286E-1,1.0387632E0,3.0285266E-1],"categories":[],"categories_nodes":[],"categories_segments":[],"categories_sizes":[],"default_left":[1,1,1,1,1,1,1,1,0,1,1,1,1,1,0,0,0,0,0,0,0,0,0,0,0,0,0],"id":51,"left_children":[1,3,5,7,9,11,13,15,-1,17,19,21,23,25,-1,-1,-1,-1,-1,-1,-1,-1,-1,-1,-1,-1,-1],"loss_changes":[2.9122733E2,4.1385757E1,1.991738E2,8.942341E0,1.335228E1,6.885681E0,2.152893E0,2.4188995E-2,0E0,9.146851E0,5.38812E0,5.906143E-1,1.178885E0,4.623413E-3,0E0,0E0,0E0,0E0,0E0,0E0,0E0,0E0,0E0,0E0,0E0,0E0,0E0],"parents":[2147483647,0,0,1,1,2,2,3,3,4,4,5,5,6,6,7,7,9,9,10,10,11,11,12,12,13,13],"right_children":[2,4,6,8,10,12,14,16,-1,18,20,22,24,26,-1,-1,-1,-1,-1,-1,-1,-1,-1,-1,-1,-1,-1],"split_conditions":[1.8500824E1,-5.5576164E1,1.5119488E1,-2.1488552E1,1.8996878E1,1.6597044E1,4.911205E0,3.8924232E1,-3.795142E-2,3.1010303E0,1.4200398E1,1.6752845E0,5.5844626E0,7.0455675E0,-1.0774824E-2,1.5550802E-2,5.529804E-2,-5.0405025E-2,4.201069E-2,-3.6617715E-2,4.351913E-2,-5.977549E-3,-5.1255282E-2,-1.5375416E-2,3.6334645E-2,5.1938158E-2,1.5142634E-2],"split_indices":[749,96,752,526,28,31,984,104,0,820,931,321,10,979,0,0,0,0,0,0,0,0,0,0,0,0,0],"split_type":[0,0,0,0,0,0,0,0,0,0,0,0,0,0,0,0,0,0,0,0,0,0,0,0,0,0,0],"sum_hessian":[5.602062E2,2.6859604E2,2.916101E2,1.4930074E1,2.5366599E2,6.546872E1,2.261414E2,1.2350939E1,2.5791352E0,2.4632147E2,7.344512E0,6.2331E1,3.1377196E0,2.2507649E2,1.0649017E0,1.0017481E0,1.1349191E1,2.443222E2,1.999261E0,2.309854E0,5.034658E0,1.013988E0,6.1317013E1,1.0072802E0,2.1304393E0,2.24074E2,1.002489E0],"tree_param":{"num_deleted":"0","num_feature":"1030","num_nodes":"27","size_leaf_vector":"0"}},{"base_weights":[-1.03223205E-1,-8.5564023E-1,5.8227175E-1,7.1181667E-1,-9.4725794E-1,-9.241786E-1,1.027687E0,-7.4286133E-1,1.0587739E0,-9.970749E-1,3.187283E-1,4.30417E-1,-1.0074121E0,1.0348356E0,-1.8746343E-1,3.0803382E-1,1.0980946E0,-1.0134361E0,7.630299E-1,8.862831E-1,-7.797257E-1,-3.5290483E-1,7.6294494E-1,-3.2480154E-2,-1.0231591E0,2.541992E-1,1.0373864E0],"categories":[],"categories_nodes":[],"categories_segments":[],"categories_sizes":[],"default_left":[1,1,1,1,1,1,1,0,1,1,1,1,1,1,0,0,0,0,0,0,0,0,0,0,0,0,0],"id":52,"left_children":[1,3,5,7,9,11,13,-1,15,17,19,21,23,25,-1,-1,-1,-1,-1,-1,-1,-1,-1,-1,-1,-1,-1],"loss_changes":[2.7670132E2,3.739409E1,1.893724E2,8.2012825E0,1.5580551E1,7.7179413E0,2.0807648E0,0E0,2.4080276E-2,7.485565E0,6.8756614E0,1.4259343E0,9.0581894E-1,1.6659546E-1,0E0,0E0,0E0,0E0,0E0,0E0,0E0,0E0,0E0,0E0,0E0,0E0,0E0],"parents":[2147483647,0,0,1,1,2,2,3,3,4,4,5,5,6,6,8,8,9,9,10,10,11,11,12,12,13,13],"right_children":[2,4,6,8,10,12,14,-1,16,18,20,22,24,26,-1,-1,-1,-1,-1,-1,-1,-1,-1,-1,-1,-1,-1],"split_conditions":[1.8500824E1,-5.5576164E1,1.5119488E1,1.6729221E0,1.8996878E1,-1.3769234E1,4.911205E0,-3.7143067E-2,-2.0915341E0,3.1013205E0,-1.3566206E1,3.8549385E1,-1.5869608E1,1.0534037E1,-9.373172E-3,1.5401691E-2,5.490473E-2,-5.0671805E-2,3.8151495E-2,4.4314157E-2,-3.8986284E-2,-1.7645242E-2,3.814725E-2,-1.6240077E-3,-5.115796E-2,1.270996E-2,5.186932E-2],"split_indices":[955,96,958,72,28,938,984,0,554,923,11,1,204,276,0,0,0,0,0,0,0,0,0,0,0,0,0],"split_type":[0,0,0,0,0,0,0,0,0,0,0,0,0,0,0,0,0,0,0,0,0,0,0,0,0,0,0],"sum_hessian":[5.345076E2,2.5469719E2,2.7981046E2,1.3691102E1,2.4100609E2,6.3607388E1,2.1620306E2,2.416872E0,1.127423E1,2.3208585E2,8.920241E0,3.4406626E0,6.0166725E1,2.1508612E2,1.1169336E0,1.000765E0,1.0273465E1,2.3036865E2,1.717195E0,6.0087595E0,2.9114823E0,1.0070705E0,2.433592E0,1.0050454E0,5.916168E1,1.0283704E0,2.1405775E2],"tree_param":{"num_deleted":"0","num_feature":"1030","num_nodes":"27","size_leaf_vector":"0"}},{"base_weights":[-1.03425995E-1,-8.451788E-1,5.829474E-1,7.196089E-1,-9.403663E-1,-9.172727E-1,1.0252678E0,1.0662993E0,-7.219017E-1,-9.918411E-1,2.327945E-1,-1.0025673E0,4.129821E-1,1.031751E0,-1.0377658E-1,-1.0106977E0,5.772844E-1,8.451888E-1,-8.102963E-1,-2.2632938E-2,-1.0196115E0,7.4787414E-1,-3.5909092E-1,1.0345889E0,2.3024444E-1],"categories":[],"categories_nodes":[],"categories_segments":[],"categories_sizes":[],"default_left":[1,1,1,1,1,1,1,0,0,1,1,1,1,1,0,0,0,0,0,0,0,0,0,0,0],"id":53,"left_children":[1,3,5,7,9,11,13,-1,-1,15,17,19,21,23,-1,-1,-1,-1,-1,-1,-1,-1,-1,-1,-1],"loss_changes":[2.6171368E2,3.7467224E1,1.7817017E2,8.131332E0,1.4317764E1,7.374218E0,1.6203613E0,0E0,0E0,7.201126E0,7.465502E0,9.4462204E-1,1.4073867E0,2.29599E-1,0E0,0E0,0E0,0E0,0E0,0E0,0E0,0E0,0E0,0E0,0E0],"parents":[2147483647,0,0,1,1,2,2,3,3,4,4,5,5,6,6,9,9,10,10,11,11,12,12,13,13],"right_children":[2,4,6,8,10,12,14,-1,-1,16,18,20,22,24,-1,-1,-1,-1,-1,-1,-1,-1,-1,-1,-1],"split_conditions":[1.8500824E1,-5.5576164E1,1.5119488E1,-2.3004372E1,1.8734844E1,1.6452162E1,4.8640413E0,5.3314965E-2,-3.6095086E-2,4.996459E0,-1.3566206E1,1.6234298E0,2.175007E0,2.2277057E0,-5.1888293E-3,-5.0534885E-2,2.886422E-2,4.225944E-2,-4.0514816E-2,-1.1316469E-3,-5.0980575E-2,3.7393708E-2,-1.7954547E-2,5.172945E-2,1.1512223E-2],"split_indices":[852,96,752,629,28,31,984,0,0,36,11,733,897,85,0,0,0,0,0,0,0,0,0,0,0],"split_type":[0,0,0,0,0,0,0,0,0,0,0,0,0,0,0,0,0,0,0,0,0,0,0,0,0],"sum_hessian":[5.12084E2,2.4600209E2,2.6608194E2,1.373027E1,2.3227182E2,6.0342896E1,2.0573903E2,1.1278118E1,2.4521527E0,2.2265686E2,9.61495E0,5.69384E1,3.4044971E0,2.0465005E2,1.0889786E0,2.2036456E2,2.2923012E0,6.1777472E0,3.4372034E0,1.0132091E0,5.592519E1,2.3963892E0,1.0081078E0,2.0363821E2,1.0118284E0],"tree_param":{"num_deleted":"0","num_feature":"1030","num_nodes":"25","size_leaf_vector":"0"}},{"base_weights":[-1.08612165E-1,-8.4135556E-1,5.9314007E-1,1.6411869E-1,-9.783876E-1,-9.2441225E-1,1.028648E0,-9.601413E-1,9.863246E-1,-9.9927753E-1,7.976324E-1,5.939567E-1,-9.8825014E-1,2.6243195E-1,1.0312593E0,1.0634663E0,7.168846E-2,-1.0282408E0,1.068066E-1,2.666432E-1,-1.0167264E0],"categories":[],"categories_nodes":[],"categories_segments":[],"categories_sizes":[],"default_left":[1,1,1,1,1,1,1,0,1,1,0,0,1,0,0,0,0,